<?xml version="1.0"?>
<MethodSetup Method="BDT::BDT">
  <GeneralInfo>
    <Info name="TMVA Release" value="4.2.1 [262657]"/>
    <Info name="ROOT Release" value="6.06/01 [394753]"/>
    <Info name="Creator" value="anmehta"/>
    <Info name="Date" value="Thu Jan  3 11:14:13 2019"/>
    <Info name="Host" value="Linux vocms0301.cern.ch 2.6.32-642.11.1.el6.x86_64 #1 SMP Wed Nov 16 09:40:09 CET 2016 x86_64 x86_64 x86_64 GNU/Linux"/>
    <Info name="Dir" value="/afs/cern.ch/work/a/anmehta/work/Test/Test2/CMSSW_8_0_25/src/CMGTools/DPS13TeV/python/plotter/BDTtraining"/>
    <Info name="Training events" value="40815"/>
    <Info name="TrainingTime" value="3.29958200e+01"/>
    <Info name="AnalysisType" value="Classification"/>
  </GeneralInfo>
  <Options>
    <Option name="V" modified="Yes">False</Option>
    <Option name="VerbosityLevel" modified="No">Default</Option>
    <Option name="VarTransform" modified="No">None</Option>
    <Option name="H" modified="Yes">False</Option>
    <Option name="CreateMVAPdfs" modified="Yes">True</Option>
    <Option name="IgnoreNegWeightsInTraining" modified="No">False</Option>
    <Option name="NTrees" modified="Yes">850</Option>
    <Option name="MaxDepth" modified="Yes">3</Option>
    <Option name="MinNodeSize" modified="Yes">0.05</Option>
    <Option name="nCuts" modified="Yes">20</Option>
    <Option name="BoostType" modified="Yes">AdaBoost</Option>
    <Option name="AdaBoostR2Loss" modified="No">quadratic</Option>
    <Option name="UseBaggedBoost" modified="No">False</Option>
    <Option name="Shrinkage" modified="No">1.000000e+00</Option>
    <Option name="AdaBoostBeta" modified="Yes">5.000000e-01</Option>
    <Option name="UseRandomisedTrees" modified="No">False</Option>
    <Option name="UseNvars" modified="No">3</Option>
    <Option name="UsePoissonNvars" modified="No">True</Option>
    <Option name="BaggedSampleFraction" modified="No">6.000000e-01</Option>
    <Option name="UseYesNoLeaf" modified="No">True</Option>
    <Option name="NegWeightTreatment" modified="No">inverseboostnegweights</Option>
    <Option name="Css" modified="No">1.000000e+00</Option>
    <Option name="Cts_sb" modified="No">1.000000e+00</Option>
    <Option name="Ctb_ss" modified="No">1.000000e+00</Option>
    <Option name="Cbb" modified="No">1.000000e+00</Option>
    <Option name="NodePurityLimit" modified="No">5.000000e-01</Option>
    <Option name="SeparationType" modified="Yes">giniindex</Option>
    <Option name="DoBoostMonitor" modified="No">False</Option>
    <Option name="UseFisherCuts" modified="No">False</Option>
    <Option name="MinLinCorrForFisher" modified="No">8.000000e-01</Option>
    <Option name="UseExclusiveVars" modified="No">False</Option>
    <Option name="DoPreselection" modified="No">False</Option>
    <Option name="SigToBkgFraction" modified="No">1.000000e+00</Option>
    <Option name="PruneMethod" modified="Yes">nopruning</Option>
    <Option name="PruneStrength" modified="No">0.000000e+00</Option>
    <Option name="PruningValFraction" modified="No">5.000000e-01</Option>
    <Option name="nEventsMin" modified="No">0</Option>
    <Option name="UseBaggedGrad" modified="No">False</Option>
    <Option name="GradBaggingFraction" modified="No">6.000000e-01</Option>
    <Option name="UseNTrainEvents" modified="No">0</Option>
    <Option name="NNodesMax" modified="No">0</Option>
  </Options>
  <Variables NVar="11">
    <Variable VarIndex="0" Expression="LepGood_pt[0]" Label="LepGood_pt[0]" Title="p_{T1}" Unit="F" Internal="LepGood_pt_0_" Type="F" Min="2.50022354e+01" Max="4.17098236e+02"/>
    <Variable VarIndex="1" Expression="LepGood_pt[1]" Label="LepGood_pt[1]" Title="p_{T2}" Unit="F" Internal="LepGood_pt_1_" Type="F" Min="2.00000229e+01" Max="1.87356689e+02"/>
    <Variable VarIndex="2" Expression="met_jecUp_pt" Label="met_jecUp_pt" Title="met_jecUp_pt" Unit="" Internal="met_jecUp_pt" Type="F" Min="1.50031013e+01" Max="5.24931702e+02"/>
    <Variable VarIndex="3" Expression="mt2davis(LepGood_pt[0],LepGood_eta[0],LepGood_phi[0],LepGood_pt[1],LepGood_eta[1],LepGood_phi[1],met_jecUp_pt,met_jecUp_phi)" Label="mt2davis(LepGood_pt[0],LepGood_eta[0],LepGood_phi[0],LepGood_pt[1],LepGood_eta[1],LepGood_phi[1],met_jecUp_pt,met_jecUp_phi)" Title="MT2_{ll}" Unit="F" Internal="mt2davis_LepGood_pt_0_,LepGood_eta_0_,LepGood_phi_0_,LepGood_pt_1_,LepGood_eta_1_,LepGood_phi_1_,met_jecUp_pt,met_jecUp_phi_" Type="F" Min="0.00000000e+00" Max="1.84397461e+02"/>
    <Variable VarIndex="4" Expression="mt_2(LepGood_pt[0],LepGood_phi[0],LepGood_pt[1],LepGood_phi[1])" Label="mt_2(LepGood_pt[0],LepGood_phi[0],LepGood_pt[1],LepGood_phi[1])" Title="MT l1 l2" Unit="F" Internal="mt_2_LepGood_pt_0_,LepGood_phi_0_,LepGood_pt_1_,LepGood_phi_1__" Type="F" Min="0.00000000e+00" Max="4.45569611e+02"/>
    <Variable VarIndex="5" Expression="mt_2(LepGood_pt[0],LepGood_phi[0],met_jecUp_pt,met_jecUp_phi)" Label="mt_2(LepGood_pt[0],LepGood_phi[0],met_jecUp_pt,met_jecUp_phi)" Title="MT l1 met" Unit="F" Internal="mt_2_LepGood_pt_0_,LepGood_phi_0_,met_jecUp_pt,met_jecUp_phi_" Type="F" Min="0.00000000e+00" Max="6.15700073e+02"/>
    <Variable VarIndex="6" Expression="abs(deltaPhi(LepGood_phi[0],LepGood_phi[1]))" Label="abs(deltaPhi(LepGood_phi[0],LepGood_phi[1]))" Title="#Delta #phi l1 l2" Unit="F" Internal="abs_deltaPhi_LepGood_phi_0_,LepGood_phi_1___" Type="F" Min="1.40070915e-06" Max="3.14158273e+00"/>
    <Variable VarIndex="7" Expression="abs(deltaPhi(LepGood_phi[1],met_jecUp_phi))" Label="abs(deltaPhi(LepGood_phi[1],met_jecUp_phi))" Title="#Delta #phi l2 met" Unit="F" Internal="abs_deltaPhi_LepGood_phi_1_,met_jecUp_phi__" Type="F" Min="2.07662582e-04" Max="3.14153910e+00"/>
    <Variable VarIndex="8" Expression="abs(deltaPhi(phi_2(LepGood_pt[0],LepGood_eta[0],LepGood_phi[0],LepGood_mass[0],LepGood_pt[1],LepGood_eta[1],LepGood_phi[1],LepGood_mass[1]),LepGood_phi[1]))" Label="abs(deltaPhi(phi_2(LepGood_pt[0],LepGood_eta[0],LepGood_phi[0],LepGood_mass[0],LepGood_pt[1],LepGood_eta[1],LepGood_phi[1],LepGood_mass[1]),LepGood_phi[1]))" Title="#Delta #phi l1l2 l2" Unit="F" Internal="abs_deltaPhi_phi_2_LepGood_pt_0_,LepGood_eta_0_,LepGood_phi_0_,LepGood_mass_0_,LepGood_pt_1_,LepGood_eta_1_,LepGood_phi_1_,LepGood_mass_1__,LepGood_phi_1___" Type="F" Min="8.34465027e-07" Max="3.14157057e+00"/>
    <Variable VarIndex="9" Expression="LepGood_eta[0]*LepGood_eta[1]" Label="LepGood_eta[0]*LepGood_eta[1]" Title="#eta_{1}*#eta_{2}" Unit="F" Internal="LepGood_eta_0__T_LepGood_eta_1_" Type="F" Min="-5.90394926e+00" Max="5.69264412e+00"/>
    <Variable VarIndex="10" Expression="abs(LepGood_eta[0]+LepGood_eta[1])" Label="abs(LepGood_eta[0]+LepGood_eta[1])" Title="abs(#eta_{1}+#eta_{2})" Unit="F" Internal="abs_LepGood_eta_0__P_LepGood_eta_1__" Type="F" Min="5.74141741e-05" Max="4.77251720e+00"/>
  </Variables>
  <Spectators NSpec="0"/>
  <Classes NClass="2">
    <Class Name="Signal" Index="0"/>
    <Class Name="Background" Index="1"/>
  </Classes>
  <Transformations NTransformations="0"/>
  <MVAPdfs>
    <PDF Name="BDT_PDFSig" MinNSmooth="0" MaxNSmooth="0" InterpolMethod="2" KDE_type="1" KDE_iter="1" KDE_border="1" KDE_finefactor="1.0000000000000000e+00">
      <Histogram Name="BDT_tr_S_original" NBins="816" XMin="-7.8220051527023315e-01" XMax="7.0587682723999023e-01" HasEquidistantBins="1">
        0.00000000e+00 0.00000000e+00 0.00000000e+00 0.00000000e+00 0.00000000e+00 0.00000000e+00 0.00000000e+00 0.00000000e+00 0.00000000e+00 0.00000000e+00 0.00000000e+00 0.00000000e+00 0.00000000e+00 0.00000000e+00 0.00000000e+00 0.00000000e+00 0.00000000e+00 0.00000000e+00 0.00000000e+00 0.00000000e+00 0.00000000e+00 0.00000000e+00 0.00000000e+00 0.00000000e+00 0.00000000e+00 0.00000000e+00 0.00000000e+00 0.00000000e+00 0.00000000e+00 0.00000000e+00 0.00000000e+00 0.00000000e+00 0.00000000e+00 0.00000000e+00 0.00000000e+00 0.00000000e+00 0.00000000e+00 0.00000000e+00 0.00000000e+00 0.00000000e+00 0.00000000e+00 0.00000000e+00 0.00000000e+00 0.00000000e+00 0.00000000e+00 0.00000000e+00 0.00000000e+00 0.00000000e+00 0.00000000e+00 0.00000000e+00 0.00000000e+00 0.00000000e+00 0.00000000e+00 0.00000000e+00 0.00000000e+00 0.00000000e+00 0.00000000e+00 0.00000000e+00 0.00000000e+00 0.00000000e+00 0.00000000e+00 0.00000000e+00 0.00000000e+00 0.00000000e+00 0.00000000e+00 0.00000000e+00 0.00000000e+00 0.00000000e+00 0.00000000e+00 0.00000000e+00 0.00000000e+00 0.00000000e+00 0.00000000e+00 0.00000000e+00 0.00000000e+00 0.00000000e+00 0.00000000e+00 0.00000000e+00 0.00000000e+00 0.00000000e+00 0.00000000e+00 0.00000000e+00 0.00000000e+00 0.00000000e+00 0.00000000e+00 0.00000000e+00 0.00000000e+00 0.00000000e+00 0.00000000e+00 0.00000000e+00 0.00000000e+00 0.00000000e+00 0.00000000e+00 0.00000000e+00 0.00000000e+00 0.00000000e+00 0.00000000e+00 0.00000000e+00 0.00000000e+00 0.00000000e+00 0.00000000e+00 0.00000000e+00 0.00000000e+00 0.00000000e+00 0.00000000e+00 0.00000000e+00 0.00000000e+00 0.00000000e+00 0.00000000e+00 0.00000000e+00 0.00000000e+00 0.00000000e+00 0.00000000e+00 0.00000000e+00 0.00000000e+00 0.00000000e+00 0.00000000e+00 0.00000000e+00 0.00000000e+00 0.00000000e+00 0.00000000e+00 0.00000000e+00 0.00000000e+00 0.00000000e+00 0.00000000e+00 0.00000000e+00 0.00000000e+00 0.00000000e+00 0.00000000e+00 0.00000000e+00 0.00000000e+00 0.00000000e+00 0.00000000e+00 0.00000000e+00 0.00000000e+00 0.00000000e+00 0.00000000e+00 0.00000000e+00 0.00000000e+00 0.00000000e+00 0.00000000e+00 1.59485384e-02 0.00000000e+00 0.00000000e+00 3.18970767e-02 0.00000000e+00 0.00000000e+00 0.00000000e+00 0.00000000e+00 0.00000000e+00 0.00000000e+00 0.00000000e+00 1.59485384e-02 1.59485384e-02 0.00000000e+00 0.00000000e+00 0.00000000e+00 1.59485384e-02 0.00000000e+00 0.00000000e+00 0.00000000e+00 0.00000000e+00 0.00000000e+00 0.00000000e+00 0.00000000e+00 0.00000000e+00 0.00000000e+00 0.00000000e+00 0.00000000e+00 0.00000000e+00 0.00000000e+00 1.59485384e-02 0.00000000e+00 0.00000000e+00 0.00000000e+00 0.00000000e+00 1.59485384e-02 0.00000000e+00 1.59485384e-02 0.00000000e+00 0.00000000e+00 0.00000000e+00 0.00000000e+00 1.59485384e-02 1.59485384e-02 0.00000000e+00 0.00000000e+00 3.18970767e-02 1.59485384e-02 0.00000000e+00 0.00000000e+00 0.00000000e+00 0.00000000e+00 0.00000000e+00 0.00000000e+00 0.00000000e+00 1.59485384e-02 0.00000000e+00 1.59485384e-02 3.18970767e-02 1.59485384e-02 0.00000000e+00 0.00000000e+00 0.00000000e+00 0.00000000e+00 4.78456151e-02 1.59485384e-02 1.59485384e-02 3.18970767e-02 1.59485384e-02 1.59485384e-02 0.00000000e+00 0.00000000e+00 0.00000000e+00 3.18970767e-02 0.00000000e+00 3.18970767e-02 3.18970767e-02 7.97426918e-02 3.18970767e-02 3.18970767e-02 0.00000000e+00 1.59485384e-02 6.37941534e-02 1.59485384e-02 1.59485384e-02 3.18970767e-02 0.00000000e+00 4.78456151e-02 4.78456151e-02 1.59485384e-02 1.59485384e-02 1.59485384e-02 7.97426918e-02 0.00000000e+00 1.59485384e-02 3.18970767e-02 1.59485384e-02 4.78456151e-02 0.00000000e+00 4.78456151e-02 4.78456151e-02 1.59485384e-02 4.78456151e-02 4.78456151e-02 4.78456151e-02 4.78456151e-02 4.78456151e-02 4.78456151e-02 1.59485384e-02 3.18970767e-02 9.56912302e-02 7.97426918e-02 3.18970767e-02 1.59485384e-02 1.27588307e-01 7.97426918e-02 3.18970767e-02 3.18970767e-02 3.18970767e-02 4.78456151e-02 4.78456151e-02 1.11639769e-01 1.59485384e-01 4.78456151e-02 1.11639769e-01 9.56912302e-02 9.56912302e-02 6.37941534e-02 1.59485384e-01 1.11639769e-01 6.37941534e-02 1.59485384e-01 1.43536845e-01 9.56912302e-02 7.97426918e-02 6.37941534e-02 1.59485384e-01 2.23279537e-01 1.43536845e-01 1.43536845e-01 1.75433922e-01 1.59485384e-01 1.11639769e-01 1.75433922e-01 2.23279537e-01 1.27588307e-01 1.11639769e-01 2.07330999e-01 2.39228075e-01 1.59485384e-01 2.07330999e-01 1.27588307e-01 1.91382460e-01 1.11639769e-01 1.91382460e-01 1.27588307e-01 1.43536845e-01 2.55176614e-01 1.75433922e-01 1.91382460e-01 2.07330999e-01 2.23279537e-01 2.55176614e-01 1.43536845e-01 3.18970767e-01 2.71125152e-01 2.23279537e-01 2.23279537e-01 3.34919306e-01 3.50867844e-01 1.91382460e-01 3.03022229e-01 1.27588307e-01 3.66816382e-01 3.18970767e-01 2.39228075e-01 3.82764921e-01 3.03022229e-01 4.78456151e-01 3.98713459e-01 3.34919306e-01 4.46559074e-01 3.18970767e-01 4.30610536e-01 4.30610536e-01 3.98713459e-01 5.42250304e-01 3.66816382e-01 3.66816382e-01 6.06044458e-01 4.30610536e-01 3.98713459e-01 4.94404689e-01 5.42250304e-01 3.82764921e-01 4.78456151e-01 6.06044458e-01 6.85787150e-01 4.62507612e-01 6.21992996e-01 5.42250304e-01 4.78456151e-01 6.21992996e-01 6.69838611e-01 7.65529841e-01 7.33632765e-01 7.33632765e-01 7.01735688e-01 6.37941534e-01 5.42250304e-01 7.81478380e-01 8.45272533e-01 7.65529841e-01 7.97426918e-01 6.37941534e-01 9.09066687e-01 8.61221071e-01 8.29323995e-01 8.77169610e-01 9.09066687e-01 7.81478380e-01 6.85787150e-01 1.02070646e+00 8.13375456e-01 7.97426918e-01 7.81478380e-01 8.45272533e-01 8.77169610e-01 7.97426918e-01 1.03665499e+00 1.05260353e+00 7.49581303e-01 1.00475792e+00 9.40963763e-01 8.77169610e-01 1.02070646e+00 1.08450061e+00 9.40963763e-01 1.00475792e+00 8.61221071e-01 1.08450061e+00 1.05260353e+00 9.09066687e-01 1.11639769e+00 1.22803745e+00 9.88809378e-01 1.10044915e+00 1.19614038e+00 1.11639769e+00 1.16424330e+00 1.18019184e+00 9.09066687e-01 9.72860840e-01 1.00475792e+00 1.14829476e+00 1.06855207e+00 1.11639769e+00 1.21208892e+00 1.22803745e+00 1.45131699e+00 1.29183161e+00 1.45131699e+00 1.19614038e+00 1.40347138e+00 1.29183161e+00 1.49916261e+00 1.43536845e+00 1.24398599e+00 1.19614038e+00 1.18019184e+00 1.30778015e+00 1.37157430e+00 1.24398599e+00 1.41941991e+00 1.40347138e+00 1.51511114e+00 1.41941991e+00 1.48321407e+00 1.56295676e+00 1.13234622e+00 1.78623630e+00 1.45131699e+00 1.37157430e+00 1.62675091e+00 1.45131699e+00 1.56295676e+00 1.65864799e+00 1.38752284e+00 1.59485384e+00 1.49916261e+00 1.43536845e+00 1.29183161e+00 1.33967722e+00 1.40347138e+00 1.78623630e+00 1.54700822e+00 1.69054507e+00 1.77028776e+00 1.80218483e+00 1.43536845e+00 1.75433922e+00 1.83408191e+00 1.49916261e+00 1.73839068e+00 1.46726553e+00 1.43536845e+00 1.70649360e+00 1.67459653e+00 1.96167022e+00 2.05736145e+00 1.91382460e+00 1.81813337e+00 1.94572168e+00 1.86597899e+00 1.64269945e+00 1.88192753e+00 1.96167022e+00 1.67459653e+00 1.96167022e+00 1.72244214e+00 1.61080237e+00 1.46726553e+00 1.85003045e+00 1.91382460e+00 1.92977314e+00 2.37633222e+00 1.83408191e+00 1.91382460e+00 1.92977314e+00 1.77028776e+00 2.04141291e+00 2.29658952e+00 1.83408191e+00 2.32848660e+00 2.36038368e+00 2.00951583e+00 2.15305268e+00 2.15305268e+00 1.86597899e+00 1.85003045e+00 2.36038368e+00 2.31253806e+00 1.99356730e+00 1.81813337e+00 2.24874391e+00 2.40822929e+00 2.39228075e+00 1.99356730e+00 2.42417783e+00 1.80218483e+00 2.42417783e+00 2.29658952e+00 2.28064099e+00 2.18494976e+00 2.48797198e+00 2.16900122e+00 2.74314860e+00 2.42417783e+00 2.31253806e+00 2.32848660e+00 2.50392052e+00 2.26469245e+00 2.28064099e+00 2.42417783e+00 2.12115560e+00 2.31253806e+00 2.37633222e+00 2.29658952e+00 2.50392052e+00 2.63150883e+00 2.24874391e+00 2.20089829e+00 2.72720006e+00 2.23279537e+00 2.82289129e+00 2.88668544e+00 2.44012637e+00 2.44012637e+00 2.44012637e+00 2.50392052e+00 2.66340591e+00 2.28064099e+00 2.83883983e+00 2.47202345e+00 2.40822929e+00 2.15305268e+00 2.40822929e+00 2.24874391e+00 2.63150883e+00 2.21684683e+00 2.53581760e+00 2.47202345e+00 2.47202345e+00 2.63150883e+00 2.87073690e+00 2.59961175e+00 2.21684683e+00 2.45607491e+00 2.31253806e+00 2.12115560e+00 2.42417783e+00 2.56771468e+00 2.26469245e+00 2.53581760e+00 2.53581760e+00 2.93453106e+00 2.45607491e+00 2.32848660e+00 2.47202345e+00 2.58366321e+00 2.32848660e+00 2.32848660e+00 2.42417783e+00 2.37633222e+00 2.39228075e+00 2.50392052e+00 2.10520706e+00 2.31253806e+00 2.21684683e+00 2.42417783e+00 2.34443514e+00 2.23279537e+00 2.05736145e+00 1.70649360e+00 2.36038368e+00 2.32848660e+00 1.89787606e+00 2.15305268e+00 2.02546437e+00 1.73839068e+00 1.85003045e+00 2.00951583e+00 1.96167022e+00 1.88192753e+00 1.81813337e+00 1.97761876e+00 2.00951583e+00 1.92977314e+00 1.85003045e+00 1.64269945e+00 1.85003045e+00 1.70649360e+00 1.49916261e+00 1.51511114e+00 1.65864799e+00 1.43536845e+00 1.77028776e+00 1.37157430e+00 1.38752284e+00 1.45131699e+00 1.54700822e+00 1.54700822e+00 1.45131699e+00 1.80218483e+00 1.49916261e+00 1.62675091e+00 1.32372868e+00 1.37157430e+00 1.54700822e+00 1.37157430e+00 1.65864799e+00 1.40347138e+00 1.35562576e+00 1.29183161e+00 1.40347138e+00 1.18019184e+00 1.32372868e+00 1.29183161e+00 1.30778015e+00 1.40347138e+00 1.22803745e+00 1.05260353e+00 1.21208892e+00 1.14829476e+00 1.11639769e+00 1.16424330e+00 1.29183161e+00 9.09066687e-01 9.72860840e-01 9.25015225e-01 9.88809378e-01 9.40963763e-01 9.25015225e-01 9.25015225e-01 9.09066687e-01 9.40963763e-01 1.02070646e+00 9.25015225e-01 1.00475792e+00 7.97426918e-01 7.97426918e-01 9.25015225e-01 1.06855207e+00 7.97426918e-01 8.29323995e-01 9.25015225e-01 8.13375456e-01 8.61221071e-01 9.40963763e-01 6.06044458e-01 7.49581303e-01 9.09066687e-01 8.77169610e-01 6.85787150e-01 6.21992996e-01 6.69838611e-01 9.72860840e-01 6.37941534e-01 5.90095919e-01 9.09066687e-01 7.65529841e-01 5.42250304e-01 6.85787150e-01 6.21992996e-01 8.45272533e-01 8.29323995e-01 7.49581303e-01 7.17684226e-01 5.10353228e-01 7.97426918e-01 5.58198843e-01 6.69838611e-01 4.46559074e-01 6.53890073e-01 5.42250304e-01 6.21992996e-01 7.65529841e-01 3.82764921e-01 6.06044458e-01 4.14661997e-01 5.10353228e-01 5.90095919e-01 4.14661997e-01 5.26301766e-01 3.82764921e-01 4.78456151e-01 3.82764921e-01 4.30610536e-01 3.82764921e-01 3.34919306e-01 3.98713459e-01 3.34919306e-01 3.66816382e-01 2.87073690e-01 2.23279537e-01 1.91382460e-01 3.18970767e-01 3.18970767e-01 1.91382460e-01 2.71125152e-01 2.87073690e-01 2.39228075e-01 2.39228075e-01 2.23279537e-01 1.59485384e-01 1.75433922e-01 1.59485384e-01 9.56912302e-02 1.75433922e-01 1.27588307e-01 2.39228075e-01 1.43536845e-01 7.97426918e-02 9.56912302e-02 1.11639769e-01 7.97426918e-02 1.43536845e-01 1.91382460e-01 7.97426918e-02 9.56912302e-02 6.37941534e-02 9.56912302e-02 1.27588307e-01 4.78456151e-02 6.37941534e-02 6.37941534e-02 9.56912302e-02 6.37941534e-02 1.27588307e-01 3.18970767e-02 6.37941534e-02 4.78456151e-02 4.78456151e-02 1.59485384e-02 6.37941534e-02 3.18970767e-02 3.18970767e-02 3.18970767e-02 3.18970767e-02 1.59485384e-02 3.18970767e-02 3.18970767e-02 7.97426918e-02 3.18970767e-02 6.37941534e-02 3.18970767e-02 1.59485384e-02 1.59485384e-02 1.59485384e-02 1.59485384e-02 0.00000000e+00 1.59485384e-02 0.00000000e+00 1.59485384e-02 0.00000000e+00 1.59485384e-02 1.59485384e-02 1.59485384e-02 3.18970767e-02 1.59485384e-02 3.18970767e-02 0.00000000e+00 0.00000000e+00 1.59485384e-02 0.00000000e+00 1.59485384e-02 0.00000000e+00 1.59485384e-02 0.00000000e+00 1.59485384e-02 0.00000000e+00 1.59485384e-02 0.00000000e+00 1.59485384e-02 0.00000000e+00 1.59485384e-02 0.00000000e+00 4.78456151e-02 0.00000000e+00 3.18970767e-02 0.00000000e+00 0.00000000e+00 1.59485384e-02 0.00000000e+00 1.59485384e-02 1.59485384e-02 0.00000000e+00 0.00000000e+00 0.00000000e+00 0.00000000e+00 1.59485384e-02 0.00000000e+00 0.00000000e+00 0.00000000e+00 3.18970767e-02 0.00000000e+00 1.59485384e-02 3.18970767e-02 0.00000000e+00 3.18970767e-02 0.00000000e+00 1.59485384e-02 1.59485384e-02 1.59485384e-02 1.59485384e-02 1.59485384e-02 0.00000000e+00 0.00000000e+00 0.00000000e+00 0.00000000e+00 0.00000000e+00 0.00000000e+00 1.59485384e-02 1.59485384e-02 0.00000000e+00 0.00000000e+00 0.00000000e+00 1.59485384e-02 0.00000000e+00 0.00000000e+00 0.00000000e+00 0.00000000e+00 0.00000000e+00 0.00000000e+00 0.00000000e+00 
      </Histogram>
    </PDF>
    <PDF Name="BDT_PDFBkg" MinNSmooth="0" MaxNSmooth="0" InterpolMethod="2" KDE_type="1" KDE_iter="1" KDE_border="1" KDE_finefactor="1.0000000000000000e+00">
      <Histogram Name="BDT_tr_B_original" NBins="816" XMin="-7.8220051527023315e-01" XMax="7.0587682723999023e-01" HasEquidistantBins="1">
        8.52680134e-02 8.52680134e-02 0.00000000e+00 0.00000000e+00 8.52680134e-02 0.00000000e+00 0.00000000e+00 1.70536027e-01 2.55804040e-01 8.52680134e-02 8.52680134e-02 1.70536027e-01 3.41072054e-01 8.52680134e-02 8.52680134e-02 0.00000000e+00 0.00000000e+00 1.70536027e-01 0.00000000e+00 2.55804040e-01 0.00000000e+00 0.00000000e+00 1.70536027e-01 8.52680134e-02 8.52680134e-02 0.00000000e+00 0.00000000e+00 0.00000000e+00 0.00000000e+00 8.52680134e-02 0.00000000e+00 0.00000000e+00 1.70536027e-01 0.00000000e+00 1.70536027e-01 8.52680134e-02 0.00000000e+00 2.55804040e-01 0.00000000e+00 8.52680134e-02 0.00000000e+00 0.00000000e+00 0.00000000e+00 0.00000000e+00 8.52680134e-02 1.70536027e-01 8.52680134e-02 0.00000000e+00 0.00000000e+00 8.52680134e-02 0.00000000e+00 0.00000000e+00 0.00000000e+00 1.70536027e-01 8.52680134e-02 8.52680134e-02 0.00000000e+00 0.00000000e+00 0.00000000e+00 0.00000000e+00 1.70536027e-01 0.00000000e+00 8.52680134e-02 0.00000000e+00 8.52680134e-02 0.00000000e+00 1.70536027e-01 0.00000000e+00 1.70536027e-01 0.00000000e+00 1.70536027e-01 2.55804040e-01 1.70536027e-01 0.00000000e+00 8.52680134e-02 0.00000000e+00 1.70536027e-01 8.52680134e-02 0.00000000e+00 0.00000000e+00 8.52680134e-02 8.52680134e-02 0.00000000e+00 1.70536027e-01 8.52680134e-02 0.00000000e+00 0.00000000e+00 0.00000000e+00 0.00000000e+00 0.00000000e+00 0.00000000e+00 8.52680134e-02 8.52680134e-02 0.00000000e+00 8.52680134e-02 0.00000000e+00 8.52680134e-02 1.70536027e-01 0.00000000e+00 0.00000000e+00 0.00000000e+00 0.00000000e+00 8.52680134e-02 0.00000000e+00 8.52680134e-02 8.52680134e-02 0.00000000e+00 0.00000000e+00 0.00000000e+00 8.52680134e-02 0.00000000e+00 8.52680134e-02 2.55804040e-01 0.00000000e+00 0.00000000e+00 8.52680134e-02 0.00000000e+00 0.00000000e+00 0.00000000e+00 1.70536027e-01 0.00000000e+00 0.00000000e+00 8.52680134e-02 0.00000000e+00 1.70536027e-01 8.52680134e-02 0.00000000e+00 8.52680134e-02 1.70536027e-01 8.52680134e-02 8.52680134e-02 1.70536027e-01 5.11608081e-01 1.70536027e-01 3.41072054e-01 1.70536027e-01 1.70536027e-01 1.70536027e-01 8.52680134e-02 2.55804040e-01 8.52680134e-02 3.41072054e-01 2.55804040e-01 3.41072054e-01 1.70536027e-01 0.00000000e+00 1.70536027e-01 3.41072054e-01 2.55804040e-01 8.52680134e-02 3.41072054e-01 1.70536027e-01 1.70536027e-01 1.70536027e-01 3.41072054e-01 6.82144108e-01 5.96876094e-01 2.55804040e-01 3.41072054e-01 3.41072054e-01 4.26340067e-01 2.55804040e-01 2.55804040e-01 3.41072054e-01 3.41072054e-01 3.41072054e-01 1.70536027e-01 4.26340067e-01 5.11608081e-01 2.55804040e-01 1.70536027e-01 5.11608081e-01 5.96876094e-01 1.70536027e-01 5.11608081e-01 4.26340067e-01 5.96876094e-01 4.26340067e-01 9.37948148e-01 2.55804040e-01 4.26340067e-01 2.55804040e-01 5.96876094e-01 8.52680134e-02 5.11608081e-01 3.41072054e-01 5.96876094e-01 5.11608081e-01 8.52680134e-02 3.41072054e-01 3.41072054e-01 1.02321616e+00 5.11608081e-01 4.26340067e-01 3.41072054e-01 5.11608081e-01 5.96876094e-01 6.82144108e-01 5.96876094e-01 7.67412121e-01 4.26340067e-01 1.10848417e+00 9.37948148e-01 9.37948148e-01 9.37948148e-01 1.70536027e-01 9.37948148e-01 1.02321616e+00 7.67412121e-01 7.67412121e-01 2.55804040e-01 7.67412121e-01 6.82144108e-01 5.11608081e-01 1.44955623e+00 7.67412121e-01 7.67412121e-01 7.67412121e-01 1.36428822e+00 1.02321616e+00 8.52680134e-01 1.10848417e+00 1.10848417e+00 8.52680134e-01 7.67412121e-01 1.27902020e+00 6.82144108e-01 8.52680134e-01 9.37948148e-01 4.26340067e-01 9.37948148e-01 8.52680134e-01 1.36428822e+00 1.02321616e+00 1.02321616e+00 1.27902020e+00 1.27902020e+00 1.27902020e+00 1.02321616e+00 7.67412121e-01 1.02321616e+00 1.62009226e+00 9.37948148e-01 9.37948148e-01 1.44955623e+00 1.27902020e+00 1.19375219e+00 1.02321616e+00 1.02321616e+00 1.36428822e+00 1.19375219e+00 1.02321616e+00 8.52680134e-01 1.02321616e+00 1.10848417e+00 5.96876094e-01 8.52680134e-01 1.53482424e+00 1.62009226e+00 1.36428822e+00 9.37948148e-01 1.44955623e+00 1.70536027e+00 1.36428822e+00 1.44955623e+00 1.70536027e+00 1.27902020e+00 1.10848417e+00 1.53482424e+00 2.04643232e+00 1.96116431e+00 1.27902020e+00 1.19375219e+00 2.04643232e+00 1.27902020e+00 1.53482424e+00 1.96116431e+00 1.79062828e+00 1.79062828e+00 1.02321616e+00 1.10848417e+00 2.30223636e+00 2.13170034e+00 1.44955623e+00 1.70536027e+00 1.62009226e+00 1.70536027e+00 1.53482424e+00 1.79062828e+00 1.70536027e+00 1.87589630e+00 1.79062828e+00 1.27902020e+00 1.19375219e+00 1.44955623e+00 1.62009226e+00 2.04643232e+00 1.79062828e+00 1.87589630e+00 1.44955623e+00 1.87589630e+00 2.04643232e+00 2.21696835e+00 2.38750438e+00 1.79062828e+00 2.30223636e+00 2.04643232e+00 1.44955623e+00 2.38750438e+00 1.87589630e+00 1.62009226e+00 2.38750438e+00 1.36428822e+00 2.72857643e+00 1.70536027e+00 1.70536027e+00 1.87589630e+00 1.96116431e+00 2.64330842e+00 2.04643232e+00 2.72857643e+00 1.53482424e+00 1.96116431e+00 2.21696835e+00 2.64330842e+00 1.96116431e+00 2.30223636e+00 2.64330842e+00 2.64330842e+00 2.30223636e+00 2.04643232e+00 2.47277239e+00 2.04643232e+00 1.79062828e+00 1.53482424e+00 2.04643232e+00 1.62009226e+00 2.30223636e+00 2.55804040e+00 2.64330842e+00 2.64330842e+00 2.04643232e+00 2.21696835e+00 2.64330842e+00 2.38750438e+00 2.81384444e+00 1.96116431e+00 3.06964848e+00 2.30223636e+00 2.30223636e+00 2.55804040e+00 2.13170034e+00 3.06964848e+00 2.64330842e+00 2.64330842e+00 2.64330842e+00 2.30223636e+00 1.87589630e+00 2.04643232e+00 1.70536027e+00 2.64330842e+00 2.04643232e+00 2.98438047e+00 1.96116431e+00 3.06964848e+00 2.47277239e+00 1.62009226e+00 2.55804040e+00 1.70536027e+00 1.87589630e+00 1.53482424e+00 2.30223636e+00 2.30223636e+00 2.21696835e+00 1.10848417e+00 2.64330842e+00 1.87589630e+00 2.72857643e+00 3.06964848e+00 1.87589630e+00 1.96116431e+00 2.04643232e+00 2.89911246e+00 2.55804040e+00 2.13170034e+00 2.21696835e+00 3.06964848e+00 1.70536027e+00 2.38750438e+00 2.21696835e+00 2.72857643e+00 2.04643232e+00 2.38750438e+00 1.62009226e+00 2.47277239e+00 1.87589630e+00 2.38750438e+00 2.13170034e+00 2.38750438e+00 2.38750438e+00 1.53482424e+00 1.79062828e+00 1.79062828e+00 2.21696835e+00 2.13170034e+00 2.13170034e+00 1.02321616e+00 1.53482424e+00 1.62009226e+00 1.79062828e+00 2.04643232e+00 1.87589630e+00 1.70536027e+00 1.87589630e+00 2.21696835e+00 1.10848417e+00 1.44955623e+00 1.10848417e+00 1.96116431e+00 1.96116431e+00 1.10848417e+00 9.37948148e-01 1.62009226e+00 1.10848417e+00 1.79062828e+00 1.36428822e+00 2.04643232e+00 1.87589630e+00 1.79062828e+00 2.30223636e+00 1.36428822e+00 1.36428822e+00 1.27902020e+00 1.27902020e+00 1.53482424e+00 1.19375219e+00 8.52680134e-01 1.44955623e+00 1.53482424e+00 1.53482424e+00 1.19375219e+00 1.10848417e+00 8.52680134e-01 1.36428822e+00 2.21696835e+00 1.87589630e+00 1.10848417e+00 9.37948148e-01 1.10848417e+00 1.53482424e+00 1.19375219e+00 1.70536027e+00 1.62009226e+00 1.79062828e+00 1.79062828e+00 7.67412121e-01 1.27902020e+00 1.36428822e+00 1.36428822e+00 1.44955623e+00 1.10848417e+00 6.82144108e-01 1.96116431e+00 6.82144108e-01 1.44955623e+00 1.44955623e+00 1.53482424e+00 1.10848417e+00 1.02321616e+00 9.37948148e-01 1.53482424e+00 1.96116431e+00 1.87589630e+00 1.70536027e+00 8.52680134e-01 1.36428822e+00 9.37948148e-01 8.52680134e-01 1.02321616e+00 8.52680134e-01 9.37948148e-01 1.27902020e+00 7.67412121e-01 5.96876094e-01 8.52680134e-01 1.19375219e+00 1.02321616e+00 1.36428822e+00 7.67412121e-01 1.19375219e+00 1.02321616e+00 5.96876094e-01 8.52680134e-01 9.37948148e-01 1.27902020e+00 7.67412121e-01 5.96876094e-01 5.96876094e-01 8.52680134e-01 5.96876094e-01 2.55804040e-01 1.10848417e+00 1.02321616e+00 5.11608081e-01 6.82144108e-01 7.67412121e-01 1.02321616e+00 6.82144108e-01 3.41072054e-01 6.82144108e-01 7.67412121e-01 4.26340067e-01 5.96876094e-01 3.41072054e-01 9.37948148e-01 8.52680134e-01 2.55804040e-01 5.96876094e-01 6.82144108e-01 2.55804040e-01 4.26340067e-01 1.19375219e+00 5.11608081e-01 7.67412121e-01 1.70536027e-01 5.96876094e-01 5.96876094e-01 3.41072054e-01 2.55804040e-01 2.55804040e-01 5.96876094e-01 5.96876094e-01 6.82144108e-01 5.11608081e-01 5.96876094e-01 5.11608081e-01 1.70536027e-01 1.70536027e-01 4.26340067e-01 3.41072054e-01 2.55804040e-01 2.55804040e-01 3.41072054e-01 4.26340067e-01 2.55804040e-01 2.55804040e-01 3.41072054e-01 3.41072054e-01 3.41072054e-01 1.70536027e-01 6.82144108e-01 1.70536027e-01 1.70536027e-01 1.70536027e-01 1.70536027e-01 5.11608081e-01 5.11608081e-01 1.70536027e-01 1.70536027e-01 8.52680134e-02 3.41072054e-01 8.52680134e-02 1.70536027e-01 2.55804040e-01 2.55804040e-01 1.70536027e-01 4.26340067e-01 8.52680134e-02 1.70536027e-01 8.52680134e-02 2.55804040e-01 5.11608081e-01 0.00000000e+00 0.00000000e+00 8.52680134e-02 1.70536027e-01 1.70536027e-01 1.70536027e-01 0.00000000e+00 8.52680134e-02 0.00000000e+00 1.70536027e-01 2.55804040e-01 8.52680134e-02 8.52680134e-02 0.00000000e+00 8.52680134e-02 2.55804040e-01 0.00000000e+00 0.00000000e+00 1.70536027e-01 1.70536027e-01 0.00000000e+00 2.55804040e-01 8.52680134e-02 1.70536027e-01 8.52680134e-02 0.00000000e+00 8.52680134e-02 0.00000000e+00 0.00000000e+00 0.00000000e+00 8.52680134e-02 0.00000000e+00 0.00000000e+00 0.00000000e+00 0.00000000e+00 0.00000000e+00 8.52680134e-02 0.00000000e+00 8.52680134e-02 0.00000000e+00 0.00000000e+00 0.00000000e+00 8.52680134e-02 0.00000000e+00 2.55804040e-01 0.00000000e+00 0.00000000e+00 0.00000000e+00 0.00000000e+00 0.00000000e+00 0.00000000e+00 8.52680134e-02 0.00000000e+00 0.00000000e+00 0.00000000e+00 0.00000000e+00 0.00000000e+00 8.52680134e-02 0.00000000e+00 0.00000000e+00 0.00000000e+00 0.00000000e+00 0.00000000e+00 8.52680134e-02 0.00000000e+00 0.00000000e+00 0.00000000e+00 0.00000000e+00 0.00000000e+00 0.00000000e+00 0.00000000e+00 0.00000000e+00 0.00000000e+00 0.00000000e+00 8.52680134e-02 0.00000000e+00 0.00000000e+00 8.52680134e-02 0.00000000e+00 0.00000000e+00 0.00000000e+00 0.00000000e+00 0.00000000e+00 0.00000000e+00 0.00000000e+00 0.00000000e+00 0.00000000e+00 0.00000000e+00 0.00000000e+00 0.00000000e+00 0.00000000e+00 0.00000000e+00 0.00000000e+00 0.00000000e+00 0.00000000e+00 0.00000000e+00 0.00000000e+00 0.00000000e+00 0.00000000e+00 0.00000000e+00 0.00000000e+00 0.00000000e+00 0.00000000e+00 0.00000000e+00 0.00000000e+00 0.00000000e+00 0.00000000e+00 0.00000000e+00 0.00000000e+00 0.00000000e+00 0.00000000e+00 0.00000000e+00 0.00000000e+00 0.00000000e+00 0.00000000e+00 0.00000000e+00 0.00000000e+00 0.00000000e+00 0.00000000e+00 0.00000000e+00 0.00000000e+00 0.00000000e+00 0.00000000e+00 0.00000000e+00 0.00000000e+00 0.00000000e+00 0.00000000e+00 0.00000000e+00 0.00000000e+00 0.00000000e+00 0.00000000e+00 0.00000000e+00 0.00000000e+00 0.00000000e+00 0.00000000e+00 0.00000000e+00 0.00000000e+00 0.00000000e+00 0.00000000e+00 0.00000000e+00 0.00000000e+00 0.00000000e+00 0.00000000e+00 0.00000000e+00 0.00000000e+00 0.00000000e+00 0.00000000e+00 0.00000000e+00 0.00000000e+00 0.00000000e+00 0.00000000e+00 0.00000000e+00 0.00000000e+00 0.00000000e+00 0.00000000e+00 0.00000000e+00 0.00000000e+00 0.00000000e+00 0.00000000e+00 0.00000000e+00 0.00000000e+00 0.00000000e+00 0.00000000e+00 0.00000000e+00 0.00000000e+00 0.00000000e+00 0.00000000e+00 0.00000000e+00 0.00000000e+00 0.00000000e+00 0.00000000e+00 0.00000000e+00 0.00000000e+00 0.00000000e+00 0.00000000e+00 0.00000000e+00 0.00000000e+00 0.00000000e+00 0.00000000e+00 0.00000000e+00 0.00000000e+00 0.00000000e+00 0.00000000e+00 0.00000000e+00 0.00000000e+00 0.00000000e+00 0.00000000e+00 0.00000000e+00 0.00000000e+00 0.00000000e+00 0.00000000e+00 0.00000000e+00 0.00000000e+00 0.00000000e+00 0.00000000e+00 0.00000000e+00 0.00000000e+00 0.00000000e+00 0.00000000e+00 0.00000000e+00 0.00000000e+00 0.00000000e+00 0.00000000e+00 0.00000000e+00 0.00000000e+00 0.00000000e+00 0.00000000e+00 0.00000000e+00 0.00000000e+00 0.00000000e+00 0.00000000e+00 0.00000000e+00 0.00000000e+00 0.00000000e+00 0.00000000e+00 0.00000000e+00 0.00000000e+00 0.00000000e+00 0.00000000e+00 0.00000000e+00 0.00000000e+00 0.00000000e+00 0.00000000e+00 0.00000000e+00 0.00000000e+00 0.00000000e+00 0.00000000e+00 0.00000000e+00 0.00000000e+00 0.00000000e+00 0.00000000e+00 0.00000000e+00 0.00000000e+00 0.00000000e+00 0.00000000e+00 0.00000000e+00 0.00000000e+00 0.00000000e+00 0.00000000e+00 0.00000000e+00 0.00000000e+00 0.00000000e+00 0.00000000e+00 0.00000000e+00 
      </Histogram>
    </PDF>
  </MVAPdfs>
  <Weights NTrees="850" AnalysisType="0">
    <BinaryTree type="DecisionTree" boostWeight="5.2110306204607826e-01" itree="0">
      <Node pos="s" depth="0" NCoef="0" IVar="3" Cut="4.3904155731201172e+01" cType="0" res="-9.9000000000000000e+01" rms="0.0000000000000000e+00" purity="5.0000000000000000e-01" nType="0">
        <Node pos="l" depth="1" NCoef="0" IVar="0" Cut="5.5253437042236328e+01" cType="1" res="-9.9000000000000000e+01" rms="0.0000000000000000e+00" purity="7.4605876207351685e-01" nType="0">
          <Node pos="l" depth="2" NCoef="0" IVar="-1" Cut="2.7959913253784180e+01" cType="0" res="-9.9000000000000000e+01" rms="0.0000000000000000e+00" purity="8.2442402839660645e-01" nType="1"/>
          <Node pos="r" depth="2" NCoef="0" IVar="6" Cut="1.3924353122711182e+00" cType="1" res="-9.9000000000000000e+01" rms="0.0000000000000000e+00" purity="4.3077573180198669e-01" nType="0">
            <Node pos="l" depth="3" NCoef="0" IVar="-1" Cut="0.0000000000000000e+00" cType="1" res="-9.9000000000000000e+01" rms="0.0000000000000000e+00" purity="5.6834906339645386e-01" nType="1"/>
            <Node pos="r" depth="3" NCoef="0" IVar="-1" Cut="0.0000000000000000e+00" cType="1" res="-9.9000000000000000e+01" rms="0.0000000000000000e+00" purity="2.7423045039176941e-01" nType="-1"/>
          </Node>
        </Node>
        <Node pos="r" depth="1" NCoef="0" IVar="0" Cut="4.3673473358154297e+01" cType="1" res="-9.9000000000000000e+01" rms="0.0000000000000000e+00" purity="3.7228974699974060e-01" nType="0">
          <Node pos="l" depth="2" NCoef="0" IVar="1" Cut="2.6723815917968750e+01" cType="0" res="-9.9000000000000000e+01" rms="0.0000000000000000e+00" purity="5.4130685329437256e-01" nType="0">
            <Node pos="l" depth="3" NCoef="0" IVar="-1" Cut="0.0000000000000000e+00" cType="1" res="-9.9000000000000000e+01" rms="0.0000000000000000e+00" purity="6.7963606119155884e-01" nType="1"/>
            <Node pos="r" depth="3" NCoef="0" IVar="-1" Cut="0.0000000000000000e+00" cType="1" res="-9.9000000000000000e+01" rms="0.0000000000000000e+00" purity="4.0712541341781616e-01" nType="-1"/>
          </Node>
          <Node pos="r" depth="2" NCoef="0" IVar="-1" Cut="6.1458103179931641e+01" cType="1" res="-9.9000000000000000e+01" rms="0.0000000000000000e+00" purity="2.1158254146575928e-01" nType="-1"/>
        </Node>
      </Node>
    </BinaryTree>
    <BinaryTree type="DecisionTree" boostWeight="3.2428958769533300e-01" itree="1">
      <Node pos="s" depth="0" NCoef="0" IVar="0" Cut="6.2344711303710938e+01" cType="1" res="-9.9000000000000000e+01" rms="0.0000000000000000e+00" purity="5.0932818651199341e-01" nType="0">
        <Node pos="l" depth="1" NCoef="0" IVar="3" Cut="2.7934665679931641e+01" cType="0" res="-9.9000000000000000e+01" rms="0.0000000000000000e+00" purity="5.8126258850097656e-01" nType="0">
          <Node pos="l" depth="2" NCoef="0" IVar="0" Cut="4.9878185272216797e+01" cType="1" res="-9.9000000000000000e+01" rms="0.0000000000000000e+00" purity="6.8248790502548218e-01" nType="0">
            <Node pos="l" depth="3" NCoef="0" IVar="-1" Cut="0.0000000000000000e+00" cType="1" res="-9.9000000000000000e+01" rms="0.0000000000000000e+00" purity="7.2132319211959839e-01" nType="1"/>
            <Node pos="r" depth="3" NCoef="0" IVar="-1" Cut="0.0000000000000000e+00" cType="1" res="-9.9000000000000000e+01" rms="0.0000000000000000e+00" purity="4.7694256901741028e-01" nType="-1"/>
          </Node>
          <Node pos="r" depth="2" NCoef="0" IVar="-1" Cut="6.3567729949951172e+01" cType="1" res="-9.9000000000000000e+01" rms="0.0000000000000000e+00" purity="4.5289927721023560e-01" nType="-1"/>
        </Node>
        <Node pos="r" depth="1" NCoef="0" IVar="-1" Cut="1.6463156938552856e+00" cType="0" res="-9.9000000000000000e+01" rms="0.0000000000000000e+00" purity="2.2591112554073334e-01" nType="-1"/>
      </Node>
    </BinaryTree>
    <BinaryTree type="DecisionTree" boostWeight="2.9714175156408396e-01" itree="2">
      <Node pos="s" depth="0" NCoef="0" IVar="0" Cut="6.2344711303710938e+01" cType="1" res="-9.9000000000000000e+01" rms="0.0000000000000000e+00" purity="5.3097116947174072e-01" nType="0">
        <Node pos="l" depth="1" NCoef="0" IVar="3" Cut="6.2853000640869141e+01" cType="0" res="-9.9000000000000000e+01" rms="0.0000000000000000e+00" purity="5.8970344066619873e-01" nType="0">
          <Node pos="l" depth="2" NCoef="0" IVar="7" Cut="1.6714030504226685e+00" cType="0" res="-9.9000000000000000e+01" rms="0.0000000000000000e+00" purity="8.1302642822265625e-01" nType="0">
            <Node pos="l" depth="3" NCoef="0" IVar="-1" Cut="0.0000000000000000e+00" cType="1" res="-9.9000000000000000e+01" rms="0.0000000000000000e+00" purity="8.3316034078598022e-01" nType="1"/>
            <Node pos="r" depth="3" NCoef="0" IVar="-1" Cut="0.0000000000000000e+00" cType="1" res="-9.9000000000000000e+01" rms="0.0000000000000000e+00" purity="2.2915180027484894e-01" nType="-1"/>
          </Node>
          <Node pos="r" depth="2" NCoef="0" IVar="2" Cut="8.7850044250488281e+01" cType="1" res="-9.9000000000000000e+01" rms="0.0000000000000000e+00" purity="5.5475330352783203e-01" nType="0">
            <Node pos="l" depth="3" NCoef="0" IVar="-1" Cut="0.0000000000000000e+00" cType="1" res="-9.9000000000000000e+01" rms="0.0000000000000000e+00" purity="5.8453273773193359e-01" nType="1"/>
            <Node pos="r" depth="3" NCoef="0" IVar="-1" Cut="0.0000000000000000e+00" cType="1" res="-9.9000000000000000e+01" rms="0.0000000000000000e+00" purity="3.0774784088134766e-01" nType="-1"/>
          </Node>
        </Node>
        <Node pos="r" depth="1" NCoef="0" IVar="-1" Cut="1.6463156938552856e+00" cType="0" res="-9.9000000000000000e+01" rms="0.0000000000000000e+00" purity="2.8756177425384521e-01" nType="-1"/>
      </Node>
    </BinaryTree>
    <BinaryTree type="DecisionTree" boostWeight="2.4177186178093238e-01" itree="3">
      <Node pos="s" depth="0" NCoef="0" IVar="3" Cut="5.2684989929199219e+01" cType="0" res="-9.9000000000000000e+01" rms="0.0000000000000000e+00" purity="4.9737498164176941e-01" nType="0">
        <Node pos="l" depth="1" NCoef="0" IVar="7" Cut="1.7108072042465210e+00" cType="0" res="-9.9000000000000000e+01" rms="0.0000000000000000e+00" purity="6.7832255363464355e-01" nType="0">
          <Node pos="l" depth="2" NCoef="0" IVar="-1" Cut="2.7791067123413086e+01" cType="0" res="-9.9000000000000000e+01" rms="0.0000000000000000e+00" purity="7.0357555150985718e-01" nType="1"/>
          <Node pos="r" depth="2" NCoef="0" IVar="-1" Cut="1.5761207580566406e+02" cType="1" res="-9.9000000000000000e+01" rms="0.0000000000000000e+00" purity="3.6503180861473083e-01" nType="-1"/>
        </Node>
        <Node pos="r" depth="1" NCoef="0" IVar="9" Cut="-9.3398064374923706e-01" cType="1" res="-9.9000000000000000e+01" rms="0.0000000000000000e+00" purity="4.4643363356590271e-01" nType="0">
          <Node pos="l" depth="2" NCoef="0" IVar="-1" Cut="2.5991739273071289e+01" cType="0" res="-9.9000000000000000e+01" rms="0.0000000000000000e+00" purity="6.2480151653289795e-01" nType="1"/>
          <Node pos="r" depth="2" NCoef="0" IVar="-1" Cut="6.2344711303710938e+01" cType="1" res="-9.9000000000000000e+01" rms="0.0000000000000000e+00" purity="4.0979772806167603e-01" nType="-1"/>
        </Node>
      </Node>
    </BinaryTree>
    <BinaryTree type="DecisionTree" boostWeight="2.2130159571869998e-01" itree="4">
      <Node pos="s" depth="0" NCoef="0" IVar="7" Cut="1.3464925289154053e+00" cType="0" res="-9.9000000000000000e+01" rms="0.0000000000000000e+00" purity="5.1757478713989258e-01" nType="0">
        <Node pos="l" depth="1" NCoef="0" IVar="1" Cut="5.1877483367919922e+01" cType="1" res="-9.9000000000000000e+01" rms="0.0000000000000000e+00" purity="5.6689733266830444e-01" nType="0">
          <Node pos="l" depth="2" NCoef="0" IVar="-1" Cut="3.0602588653564453e+01" cType="0" res="-9.9000000000000000e+01" rms="0.0000000000000000e+00" purity="5.7859301567077637e-01" nType="1"/>
          <Node pos="r" depth="2" NCoef="0" IVar="-1" Cut="1.0631005764007568e+00" cType="1" res="-9.9000000000000000e+01" rms="0.0000000000000000e+00" purity="1.3569931685924530e-01" nType="-1"/>
        </Node>
        <Node pos="r" depth="1" NCoef="0" IVar="0" Cut="4.3676883697509766e+01" cType="1" res="-9.9000000000000000e+01" rms="0.0000000000000000e+00" purity="4.0305319428443909e-01" nType="0">
          <Node pos="l" depth="2" NCoef="0" IVar="4" Cut="5.3563816070556641e+01" cType="0" res="-9.9000000000000000e+01" rms="0.0000000000000000e+00" purity="5.0904577970504761e-01" nType="0">
            <Node pos="l" depth="3" NCoef="0" IVar="-1" Cut="0.0000000000000000e+00" cType="1" res="-9.9000000000000000e+01" rms="0.0000000000000000e+00" purity="6.2902694940567017e-01" nType="1"/>
            <Node pos="r" depth="3" NCoef="0" IVar="-1" Cut="0.0000000000000000e+00" cType="1" res="-9.9000000000000000e+01" rms="0.0000000000000000e+00" purity="3.8937386870384216e-01" nType="-1"/>
          </Node>
          <Node pos="r" depth="2" NCoef="0" IVar="-1" Cut="6.1467903137207031e+01" cType="1" res="-9.9000000000000000e+01" rms="0.0000000000000000e+00" purity="2.9605224728584290e-01" nType="-1"/>
        </Node>
      </Node>
    </BinaryTree>
    <BinaryTree type="DecisionTree" boostWeight="1.6118069579619207e-01" itree="5">
      <Node pos="s" depth="0" NCoef="0" IVar="4" Cut="1.0608800506591797e+02" cType="1" res="-9.9000000000000000e+01" rms="0.0000000000000000e+00" purity="4.8909878730773926e-01" nType="0">
        <Node pos="l" depth="1" NCoef="0" IVar="1" Cut="3.1263393402099609e+01" cType="0" res="-9.9000000000000000e+01" rms="0.0000000000000000e+00" purity="5.0420928001403809e-01" nType="0">
          <Node pos="l" depth="2" NCoef="0" IVar="-1" Cut="1.9449923038482666e+00" cType="0" res="-9.9000000000000000e+01" rms="0.0000000000000000e+00" purity="5.9601771831512451e-01" nType="1"/>
          <Node pos="r" depth="2" NCoef="0" IVar="-1" Cut="5.1495548248291016e+01" cType="1" res="-9.9000000000000000e+01" rms="0.0000000000000000e+00" purity="4.4916388392448425e-01" nType="-1"/>
        </Node>
        <Node pos="r" depth="1" NCoef="0" IVar="1" Cut="4.4162559509277344e+01" cType="1" res="-9.9000000000000000e+01" rms="0.0000000000000000e+00" purity="2.2096528112888336e-01" nType="0">
          <Node pos="l" depth="2" NCoef="0" IVar="7" Cut="2.0951490402221680e+00" cType="0" res="-9.9000000000000000e+01" rms="0.0000000000000000e+00" purity="3.7043073773384094e-01" nType="0">
            <Node pos="l" depth="3" NCoef="0" IVar="-1" Cut="0.0000000000000000e+00" cType="1" res="-9.9000000000000000e+01" rms="0.0000000000000000e+00" purity="5.4381752014160156e-01" nType="1"/>
            <Node pos="r" depth="3" NCoef="0" IVar="-1" Cut="0.0000000000000000e+00" cType="1" res="-9.9000000000000000e+01" rms="0.0000000000000000e+00" purity="2.1767912805080414e-01" nType="-1"/>
          </Node>
          <Node pos="r" depth="2" NCoef="0" IVar="-1" Cut="2.1330227851867676e+00" cType="1" res="-9.9000000000000000e+01" rms="0.0000000000000000e+00" purity="1.2474852800369263e-01" nType="-1"/>
        </Node>
      </Node>
    </BinaryTree>
    <BinaryTree type="DecisionTree" boostWeight="2.0608253073404362e-01" itree="6">
      <Node pos="s" depth="0" NCoef="0" IVar="0" Cut="4.3673473358154297e+01" cType="1" res="-9.9000000000000000e+01" rms="0.0000000000000000e+00" purity="4.9998530745506287e-01" nType="0">
        <Node pos="l" depth="1" NCoef="0" IVar="3" Cut="6.2853000640869141e+01" cType="0" res="-9.9000000000000000e+01" rms="0.0000000000000000e+00" purity="5.6373322010040283e-01" nType="0">
          <Node pos="l" depth="2" NCoef="0" IVar="-1" Cut="1.1899237823486328e+02" cType="1" res="-9.9000000000000000e+01" rms="0.0000000000000000e+00" purity="7.6102018356323242e-01" nType="1"/>
          <Node pos="r" depth="2" NCoef="0" IVar="0" Cut="3.1225660324096680e+01" cType="0" res="-9.9000000000000000e+01" rms="0.0000000000000000e+00" purity="5.4000097513198853e-01" nType="0">
            <Node pos="l" depth="3" NCoef="0" IVar="-1" Cut="0.0000000000000000e+00" cType="1" res="-9.9000000000000000e+01" rms="0.0000000000000000e+00" purity="5.6651532649993896e-01" nType="1"/>
            <Node pos="r" depth="3" NCoef="0" IVar="-1" Cut="0.0000000000000000e+00" cType="1" res="-9.9000000000000000e+01" rms="0.0000000000000000e+00" purity="4.4318392872810364e-01" nType="-1"/>
          </Node>
        </Node>
        <Node pos="r" depth="1" NCoef="0" IVar="9" Cut="-3.5143938660621643e-01" cType="1" res="-9.9000000000000000e+01" rms="0.0000000000000000e+00" purity="4.2481923103332520e-01" nType="0">
          <Node pos="l" depth="2" NCoef="0" IVar="1" Cut="2.5980443954467773e+01" cType="0" res="-9.9000000000000000e+01" rms="0.0000000000000000e+00" purity="5.4484587907791138e-01" nType="0">
            <Node pos="l" depth="3" NCoef="0" IVar="-1" Cut="0.0000000000000000e+00" cType="1" res="-9.9000000000000000e+01" rms="0.0000000000000000e+00" purity="6.1340630054473877e-01" nType="1"/>
            <Node pos="r" depth="3" NCoef="0" IVar="-1" Cut="0.0000000000000000e+00" cType="1" res="-9.9000000000000000e+01" rms="0.0000000000000000e+00" purity="3.4700071811676025e-01" nType="-1"/>
          </Node>
          <Node pos="r" depth="2" NCoef="0" IVar="-1" Cut="4.3908569335937500e+01" cType="1" res="-9.9000000000000000e+01" rms="0.0000000000000000e+00" purity="3.8056933879852295e-01" nType="-1"/>
        </Node>
      </Node>
    </BinaryTree>
    <BinaryTree type="DecisionTree" boostWeight="1.2769487500560717e-01" itree="7">
      <Node pos="s" depth="0" NCoef="0" IVar="1" Cut="4.3908119201660156e+01" cType="1" res="-9.9000000000000000e+01" rms="0.0000000000000000e+00" purity="4.9693760275840759e-01" nType="0">
        <Node pos="l" depth="1" NCoef="0" IVar="3" Cut="7.0246650695800781e+01" cType="0" res="-9.9000000000000000e+01" rms="0.0000000000000000e+00" purity="5.1342242956161499e-01" nType="0">
          <Node pos="l" depth="2" NCoef="0" IVar="-1" Cut="5.1659824371337891e+01" cType="1" res="-9.9000000000000000e+01" rms="0.0000000000000000e+00" purity="7.2783201932907104e-01" nType="1"/>
          <Node pos="r" depth="2" NCoef="0" IVar="1" Cut="2.3415151596069336e+01" cType="0" res="-9.9000000000000000e+01" rms="0.0000000000000000e+00" purity="4.9852415919303894e-01" nType="0">
            <Node pos="l" depth="3" NCoef="0" IVar="-1" Cut="0.0000000000000000e+00" cType="1" res="-9.9000000000000000e+01" rms="0.0000000000000000e+00" purity="5.2391028404235840e-01" nType="1"/>
            <Node pos="r" depth="3" NCoef="0" IVar="-1" Cut="0.0000000000000000e+00" cType="1" res="-9.9000000000000000e+01" rms="0.0000000000000000e+00" purity="4.1142615675926208e-01" nType="-1"/>
          </Node>
        </Node>
        <Node pos="r" depth="1" NCoef="0" IVar="4" Cut="1.2756085968017578e+02" cType="1" res="-9.9000000000000000e+01" rms="0.0000000000000000e+00" purity="2.7467733621597290e-01" nType="0">
          <Node pos="l" depth="2" NCoef="0" IVar="9" Cut="-2.1300623416900635e+00" cType="1" res="-9.9000000000000000e+01" rms="0.0000000000000000e+00" purity="3.4000808000564575e-01" nType="0">
            <Node pos="l" depth="3" NCoef="0" IVar="-1" Cut="0.0000000000000000e+00" cType="1" res="-9.9000000000000000e+01" rms="0.0000000000000000e+00" purity="6.8016028404235840e-01" nType="1"/>
            <Node pos="r" depth="3" NCoef="0" IVar="-1" Cut="0.0000000000000000e+00" cType="1" res="-9.9000000000000000e+01" rms="0.0000000000000000e+00" purity="3.2733249664306641e-01" nType="-1"/>
          </Node>
          <Node pos="r" depth="2" NCoef="0" IVar="-1" Cut="2.0230596065521240e+00" cType="1" res="-9.9000000000000000e+01" rms="0.0000000000000000e+00" purity="1.0263655334711075e-01" nType="-1"/>
        </Node>
      </Node>
    </BinaryTree>
    <BinaryTree type="DecisionTree" boostWeight="1.1178102091517679e-01" itree="8">
      <Node pos="s" depth="0" NCoef="0" IVar="3" Cut="7.0246650695800781e+01" cType="0" res="-9.9000000000000000e+01" rms="0.0000000000000000e+00" purity="4.8172307014465332e-01" nType="0">
        <Node pos="l" depth="1" NCoef="0" IVar="0" Cut="5.1742225646972656e+01" cType="1" res="-9.9000000000000000e+01" rms="0.0000000000000000e+00" purity="6.8243050575256348e-01" nType="0">
          <Node pos="l" depth="2" NCoef="0" IVar="-1" Cut="1.2111296844482422e+02" cType="1" res="-9.9000000000000000e+01" rms="0.0000000000000000e+00" purity="7.5503778457641602e-01" nType="1"/>
          <Node pos="r" depth="2" NCoef="0" IVar="8" Cut="5.6275457143783569e-01" cType="1" res="-9.9000000000000000e+01" rms="0.0000000000000000e+00" purity="5.5889886617660522e-01" nType="0">
            <Node pos="l" depth="3" NCoef="0" IVar="-1" Cut="0.0000000000000000e+00" cType="1" res="-9.9000000000000000e+01" rms="0.0000000000000000e+00" purity="6.4853620529174805e-01" nType="1"/>
            <Node pos="r" depth="3" NCoef="0" IVar="-1" Cut="0.0000000000000000e+00" cType="1" res="-9.9000000000000000e+01" rms="0.0000000000000000e+00" purity="4.7330471873283386e-01" nType="-1"/>
          </Node>
        </Node>
        <Node pos="r" depth="1" NCoef="0" IVar="4" Cut="1.0608800506591797e+02" cType="1" res="-9.9000000000000000e+01" rms="0.0000000000000000e+00" purity="4.6761453151702881e-01" nType="0">
          <Node pos="l" depth="2" NCoef="0" IVar="2" Cut="6.3567729949951172e+01" cType="1" res="-9.9000000000000000e+01" rms="0.0000000000000000e+00" purity="4.7955992817878723e-01" nType="0">
            <Node pos="l" depth="3" NCoef="0" IVar="-1" Cut="0.0000000000000000e+00" cType="1" res="-9.9000000000000000e+01" rms="0.0000000000000000e+00" purity="5.1063740253448486e-01" nType="1"/>
            <Node pos="r" depth="3" NCoef="0" IVar="-1" Cut="0.0000000000000000e+00" cType="1" res="-9.9000000000000000e+01" rms="0.0000000000000000e+00" purity="4.1444113850593567e-01" nType="-1"/>
          </Node>
          <Node pos="r" depth="2" NCoef="0" IVar="-1" Cut="4.4162559509277344e+01" cType="1" res="-9.9000000000000000e+01" rms="0.0000000000000000e+00" purity="2.5025090575218201e-01" nType="-1"/>
        </Node>
      </Node>
    </BinaryTree>
    <BinaryTree type="DecisionTree" boostWeight="1.1668361485604473e-01" itree="9">
      <Node pos="s" depth="0" NCoef="0" IVar="3" Cut="6.1465820312500000e+01" cType="0" res="-9.9000000000000000e+01" rms="0.0000000000000000e+00" purity="4.7302585840225220e-01" nType="0">
        <Node pos="l" depth="1" NCoef="0" IVar="7" Cut="2.4395880699157715e+00" cType="0" res="-9.9000000000000000e+01" rms="0.0000000000000000e+00" purity="6.1209458112716675e-01" nType="0">
          <Node pos="l" depth="2" NCoef="0" IVar="2" Cut="1.2313471984863281e+02" cType="1" res="-9.9000000000000000e+01" rms="0.0000000000000000e+00" purity="6.6627573966979980e-01" nType="0">
            <Node pos="l" depth="3" NCoef="0" IVar="-1" Cut="0.0000000000000000e+00" cType="1" res="-9.9000000000000000e+01" rms="0.0000000000000000e+00" purity="6.9078934192657471e-01" nType="1"/>
            <Node pos="r" depth="3" NCoef="0" IVar="-1" Cut="0.0000000000000000e+00" cType="1" res="-9.9000000000000000e+01" rms="0.0000000000000000e+00" purity="4.7796145081520081e-01" nType="-1"/>
          </Node>
          <Node pos="r" depth="2" NCoef="0" IVar="7" Cut="1.6874290704727173e+00" cType="0" res="-9.9000000000000000e+01" rms="0.0000000000000000e+00" purity="5.1151245832443237e-01" nType="0">
            <Node pos="l" depth="3" NCoef="0" IVar="-1" Cut="0.0000000000000000e+00" cType="1" res="-9.9000000000000000e+01" rms="0.0000000000000000e+00" purity="5.4611885547637939e-01" nType="1"/>
            <Node pos="r" depth="3" NCoef="0" IVar="-1" Cut="0.0000000000000000e+00" cType="1" res="-9.9000000000000000e+01" rms="0.0000000000000000e+00" purity="3.3019819855690002e-01" nType="-1"/>
          </Node>
        </Node>
        <Node pos="r" depth="1" NCoef="0" IVar="-1" Cut="1.2730560302734375e+02" cType="1" res="-9.9000000000000000e+01" rms="0.0000000000000000e+00" purity="4.5294764637947083e-01" nType="-1"/>
      </Node>
    </BinaryTree>
    <BinaryTree type="DecisionTree" boostWeight="1.1635422211469489e-01" itree="10">
      <Node pos="s" depth="0" NCoef="0" IVar="3" Cut="8.7808313369750977e+00" cType="0" res="-9.9000000000000000e+01" rms="0.0000000000000000e+00" purity="4.9574565887451172e-01" nType="0">
        <Node pos="l" depth="1" NCoef="0" IVar="1" Cut="4.3908119201660156e+01" cType="1" res="-9.9000000000000000e+01" rms="0.0000000000000000e+00" purity="5.2512681484222412e-01" nType="0">
          <Node pos="l" depth="2" NCoef="0" IVar="-1" Cut="6.7319953918457031e+01" cType="0" res="-9.9000000000000000e+01" rms="0.0000000000000000e+00" purity="5.3741890192031860e-01" nType="1"/>
          <Node pos="r" depth="2" NCoef="0" IVar="-1" Cut="1.2756085968017578e+02" cType="1" res="-9.9000000000000000e+01" rms="0.0000000000000000e+00" purity="3.3405140042304993e-01" nType="-1"/>
        </Node>
        <Node pos="r" depth="1" NCoef="0" IVar="0" Cut="5.8309665679931641e+01" cType="1" res="-9.9000000000000000e+01" rms="0.0000000000000000e+00" purity="4.1336414217948914e-01" nType="0">
          <Node pos="l" depth="2" NCoef="0" IVar="9" Cut="-3.2980904579162598e+00" cType="1" res="-9.9000000000000000e+01" rms="0.0000000000000000e+00" purity="4.4897520542144775e-01" nType="0">
            <Node pos="l" depth="3" NCoef="0" IVar="-1" Cut="0.0000000000000000e+00" cType="1" res="-9.9000000000000000e+01" rms="0.0000000000000000e+00" purity="7.5215673446655273e-01" nType="1"/>
            <Node pos="r" depth="3" NCoef="0" IVar="-1" Cut="0.0000000000000000e+00" cType="1" res="-9.9000000000000000e+01" rms="0.0000000000000000e+00" purity="4.4321292638778687e-01" nType="-1"/>
          </Node>
          <Node pos="r" depth="2" NCoef="0" IVar="-1" Cut="7.0305641174316406e+01" cType="1" res="-9.9000000000000000e+01" rms="0.0000000000000000e+00" purity="3.1153392791748047e-01" nType="-1"/>
        </Node>
      </Node>
    </BinaryTree>
    <BinaryTree type="DecisionTree" boostWeight="9.8621973213892197e-02" itree="11">
      <Node pos="s" depth="0" NCoef="0" IVar="4" Cut="1.2730560302734375e+02" cType="1" res="-9.9000000000000000e+01" rms="0.0000000000000000e+00" purity="4.8423862457275391e-01" nType="0">
        <Node pos="l" depth="1" NCoef="0" IVar="9" Cut="-2.0384180545806885e+00" cType="1" res="-9.9000000000000000e+01" rms="0.0000000000000000e+00" purity="4.9053725600242615e-01" nType="0">
          <Node pos="l" depth="2" NCoef="0" IVar="1" Cut="2.2310943603515625e+01" cType="0" res="-9.9000000000000000e+01" rms="0.0000000000000000e+00" purity="6.4490813016891479e-01" nType="0">
            <Node pos="l" depth="3" NCoef="0" IVar="-1" Cut="0.0000000000000000e+00" cType="1" res="-9.9000000000000000e+01" rms="0.0000000000000000e+00" purity="6.8283241987228394e-01" nType="1"/>
            <Node pos="r" depth="3" NCoef="0" IVar="-1" Cut="0.0000000000000000e+00" cType="1" res="-9.9000000000000000e+01" rms="0.0000000000000000e+00" purity="4.4200223684310913e-01" nType="-1"/>
          </Node>
          <Node pos="r" depth="2" NCoef="0" IVar="3" Cut="7.0246650695800781e+01" cType="0" res="-9.9000000000000000e+01" rms="0.0000000000000000e+00" purity="4.7982519865036011e-01" nType="0">
            <Node pos="l" depth="3" NCoef="0" IVar="-1" Cut="0.0000000000000000e+00" cType="1" res="-9.9000000000000000e+01" rms="0.0000000000000000e+00" purity="6.1882257461547852e-01" nType="1"/>
            <Node pos="r" depth="3" NCoef="0" IVar="-1" Cut="0.0000000000000000e+00" cType="1" res="-9.9000000000000000e+01" rms="0.0000000000000000e+00" purity="4.7059184312820435e-01" nType="-1"/>
          </Node>
        </Node>
        <Node pos="r" depth="1" NCoef="0" IVar="6" Cut="2.0230596065521240e+00" cType="1" res="-9.9000000000000000e+01" rms="0.0000000000000000e+00" purity="2.0265351235866547e-01" nType="0">
          <Node pos="l" depth="2" NCoef="0" IVar="1" Cut="5.6393070220947266e+01" cType="1" res="-9.9000000000000000e+01" rms="0.0000000000000000e+00" purity="5.2860540151596069e-01" nType="0">
            <Node pos="l" depth="3" NCoef="0" IVar="-1" Cut="0.0000000000000000e+00" cType="1" res="-9.9000000000000000e+01" rms="0.0000000000000000e+00" purity="7.0097362995147705e-01" nType="1"/>
            <Node pos="r" depth="3" NCoef="0" IVar="-1" Cut="0.0000000000000000e+00" cType="1" res="-9.9000000000000000e+01" rms="0.0000000000000000e+00" purity="3.8786152005195618e-01" nType="-1"/>
          </Node>
          <Node pos="r" depth="2" NCoef="0" IVar="-1" Cut="5.8880790710449219e+01" cType="1" res="-9.9000000000000000e+01" rms="0.0000000000000000e+00" purity="1.7618015408515930e-01" nType="-1"/>
        </Node>
      </Node>
    </BinaryTree>
    <BinaryTree type="DecisionTree" boostWeight="8.2369104058977363e-02" itree="12">
      <Node pos="s" depth="0" NCoef="0" IVar="4" Cut="1.2730560302734375e+02" cType="1" res="-9.9000000000000000e+01" rms="0.0000000000000000e+00" purity="5.0341236591339111e-01" nType="0">
        <Node pos="l" depth="1" NCoef="0" IVar="0" Cut="5.5251235961914062e+01" cType="1" res="-9.9000000000000000e+01" rms="0.0000000000000000e+00" purity="5.0965034961700439e-01" nType="0">
          <Node pos="l" depth="2" NCoef="0" IVar="-1" Cut="-3.8176193833351135e-01" cType="1" res="-9.9000000000000000e+01" rms="0.0000000000000000e+00" purity="5.2929568290710449e-01" nType="1"/>
          <Node pos="r" depth="2" NCoef="0" IVar="-1" Cut="2.5631885528564453e+01" cType="0" res="-9.9000000000000000e+01" rms="0.0000000000000000e+00" purity="4.4330501556396484e-01" nType="-1"/>
        </Node>
        <Node pos="r" depth="1" NCoef="0" IVar="6" Cut="2.0230596065521240e+00" cType="1" res="-9.9000000000000000e+01" rms="0.0000000000000000e+00" purity="2.1695324778556824e-01" nType="0">
          <Node pos="l" depth="2" NCoef="0" IVar="1" Cut="5.6393070220947266e+01" cType="1" res="-9.9000000000000000e+01" rms="0.0000000000000000e+00" purity="5.3156661987304688e-01" nType="0">
            <Node pos="l" depth="3" NCoef="0" IVar="-1" Cut="0.0000000000000000e+00" cType="1" res="-9.9000000000000000e+01" rms="0.0000000000000000e+00" purity="6.7990094423294067e-01" nType="1"/>
            <Node pos="r" depth="3" NCoef="0" IVar="-1" Cut="0.0000000000000000e+00" cType="1" res="-9.9000000000000000e+01" rms="0.0000000000000000e+00" purity="4.1151931881904602e-01" nType="-1"/>
          </Node>
          <Node pos="r" depth="2" NCoef="0" IVar="-1" Cut="5.8880790710449219e+01" cType="1" res="-9.9000000000000000e+01" rms="0.0000000000000000e+00" purity="1.9095404446125031e-01" nType="-1"/>
        </Node>
      </Node>
    </BinaryTree>
    <BinaryTree type="DecisionTree" boostWeight="7.2458913072285261e-02" itree="13">
      <Node pos="s" depth="0" NCoef="0" IVar="4" Cut="1.2730560302734375e+02" cType="1" res="-9.9000000000000000e+01" rms="0.0000000000000000e+00" purity="4.9285805225372314e-01" nType="0">
        <Node pos="l" depth="1" NCoef="0" IVar="9" Cut="-3.8176193833351135e-01" cType="1" res="-9.9000000000000000e+01" rms="0.0000000000000000e+00" purity="4.9846887588500977e-01" nType="0">
          <Node pos="l" depth="2" NCoef="0" IVar="-1" Cut="5.8961746215820312e+01" cType="0" res="-9.9000000000000000e+01" rms="0.0000000000000000e+00" purity="5.5214864015579224e-01" nType="1"/>
          <Node pos="r" depth="2" NCoef="0" IVar="-1" Cut="1.3642097473144531e+02" cType="1" res="-9.9000000000000000e+01" rms="0.0000000000000000e+00" purity="4.7738677263259888e-01" nType="-1"/>
        </Node>
        <Node pos="r" depth="1" NCoef="0" IVar="1" Cut="4.5921813964843750e+01" cType="1" res="-9.9000000000000000e+01" rms="0.0000000000000000e+00" purity="2.2955331206321716e-01" nType="0">
          <Node pos="l" depth="2" NCoef="0" IVar="7" Cut="1.6411169767379761e+00" cType="0" res="-9.9000000000000000e+01" rms="0.0000000000000000e+00" purity="3.6982974410057068e-01" nType="0">
            <Node pos="l" depth="3" NCoef="0" IVar="-1" Cut="0.0000000000000000e+00" cType="1" res="-9.9000000000000000e+01" rms="0.0000000000000000e+00" purity="5.2994686365127563e-01" nType="1"/>
            <Node pos="r" depth="3" NCoef="0" IVar="-1" Cut="0.0000000000000000e+00" cType="1" res="-9.9000000000000000e+01" rms="0.0000000000000000e+00" purity="1.3695679605007172e-01" nType="-1"/>
          </Node>
          <Node pos="r" depth="2" NCoef="0" IVar="-1" Cut="2.0230596065521240e+00" cType="1" res="-9.9000000000000000e+01" rms="0.0000000000000000e+00" purity="1.6749772429466248e-01" nType="-1"/>
        </Node>
      </Node>
    </BinaryTree>
    <BinaryTree type="DecisionTree" boostWeight="4.3907640444723083e-02" itree="14">
      <Node pos="s" depth="0" NCoef="0" IVar="4" Cut="1.2730560302734375e+02" cType="1" res="-9.9000000000000000e+01" rms="0.0000000000000000e+00" purity="5.0083094835281372e-01" nType="0">
        <Node pos="l" depth="1" NCoef="0" IVar="2" Cut="1.3641467285156250e+02" cType="1" res="-9.9000000000000000e+01" rms="0.0000000000000000e+00" purity="5.0637805461883545e-01" nType="0">
          <Node pos="l" depth="2" NCoef="0" IVar="-1" Cut="6.9342544555664062e+01" cType="0" res="-9.9000000000000000e+01" rms="0.0000000000000000e+00" purity="5.1183772087097168e-01" nType="1"/>
          <Node pos="r" depth="2" NCoef="0" IVar="-1" Cut="7.9027481079101562e+01" cType="0" res="-9.9000000000000000e+01" rms="0.0000000000000000e+00" purity="3.1943145394325256e-01" nType="-1"/>
        </Node>
        <Node pos="r" depth="1" NCoef="0" IVar="6" Cut="2.0230596065521240e+00" cType="1" res="-9.9000000000000000e+01" rms="0.0000000000000000e+00" purity="2.3569308221340179e-01" nType="0">
          <Node pos="l" depth="2" NCoef="0" IVar="1" Cut="5.6393070220947266e+01" cType="1" res="-9.9000000000000000e+01" rms="0.0000000000000000e+00" purity="5.4602557420730591e-01" nType="0">
            <Node pos="l" depth="3" NCoef="0" IVar="-1" Cut="0.0000000000000000e+00" cType="1" res="-9.9000000000000000e+01" rms="0.0000000000000000e+00" purity="6.6663652658462524e-01" nType="1"/>
            <Node pos="r" depth="3" NCoef="0" IVar="-1" Cut="0.0000000000000000e+00" cType="1" res="-9.9000000000000000e+01" rms="0.0000000000000000e+00" purity="4.4945815205574036e-01" nType="-1"/>
          </Node>
          <Node pos="r" depth="2" NCoef="0" IVar="-1" Cut="5.8880790710449219e+01" cType="1" res="-9.9000000000000000e+01" rms="0.0000000000000000e+00" purity="2.0925363898277283e-01" nType="-1"/>
        </Node>
      </Node>
    </BinaryTree>
    <BinaryTree type="DecisionTree" boostWeight="5.5809060621038943e-02" itree="15">
      <Node pos="s" depth="0" NCoef="0" IVar="4" Cut="1.2730560302734375e+02" cType="1" res="-9.9000000000000000e+01" rms="0.0000000000000000e+00" purity="4.9089121818542480e-01" nType="0">
        <Node pos="l" depth="1" NCoef="0" IVar="2" Cut="1.1213235473632812e+02" cType="1" res="-9.9000000000000000e+01" rms="0.0000000000000000e+00" purity="4.9602288007736206e-01" nType="0">
          <Node pos="l" depth="2" NCoef="0" IVar="3" Cut="6.7225212097167969e+01" cType="0" res="-9.9000000000000000e+01" rms="0.0000000000000000e+00" purity="5.0352078676223755e-01" nType="0">
            <Node pos="l" depth="3" NCoef="0" IVar="-1" Cut="0.0000000000000000e+00" cType="1" res="-9.9000000000000000e+01" rms="0.0000000000000000e+00" purity="6.4237111806869507e-01" nType="1"/>
            <Node pos="r" depth="3" NCoef="0" IVar="-1" Cut="0.0000000000000000e+00" cType="1" res="-9.9000000000000000e+01" rms="0.0000000000000000e+00" purity="4.9435380101203918e-01" nType="-1"/>
          </Node>
          <Node pos="r" depth="2" NCoef="0" IVar="3" Cut="8.7808311462402344e+01" cType="0" res="-9.9000000000000000e+01" rms="0.0000000000000000e+00" purity="3.8666722178459167e-01" nType="0">
            <Node pos="l" depth="3" NCoef="0" IVar="-1" Cut="0.0000000000000000e+00" cType="1" res="-9.9000000000000000e+01" rms="0.0000000000000000e+00" purity="6.3914680480957031e-01" nType="1"/>
            <Node pos="r" depth="3" NCoef="0" IVar="-1" Cut="0.0000000000000000e+00" cType="1" res="-9.9000000000000000e+01" rms="0.0000000000000000e+00" purity="3.5122665762901306e-01" nType="-1"/>
          </Node>
        </Node>
        <Node pos="r" depth="1" NCoef="0" IVar="5" Cut="5.8880790710449219e+01" cType="1" res="-9.9000000000000000e+01" rms="0.0000000000000000e+00" purity="2.4278606474399567e-01" nType="0">
          <Node pos="l" depth="2" NCoef="0" IVar="1" Cut="5.3779308319091797e+01" cType="1" res="-9.9000000000000000e+01" rms="0.0000000000000000e+00" purity="3.8601431250572205e-01" nType="0">
            <Node pos="l" depth="3" NCoef="0" IVar="-1" Cut="0.0000000000000000e+00" cType="1" res="-9.9000000000000000e+01" rms="0.0000000000000000e+00" purity="5.5599546432495117e-01" nType="1"/>
            <Node pos="r" depth="3" NCoef="0" IVar="-1" Cut="0.0000000000000000e+00" cType="1" res="-9.9000000000000000e+01" rms="0.0000000000000000e+00" purity="2.1252495050430298e-01" nType="-1"/>
          </Node>
          <Node pos="r" depth="2" NCoef="0" IVar="6" Cut="2.0582933425903320e+00" cType="1" res="-9.9000000000000000e+01" rms="0.0000000000000000e+00" purity="1.8444459140300751e-01" nType="0">
            <Node pos="l" depth="3" NCoef="0" IVar="-1" Cut="0.0000000000000000e+00" cType="1" res="-9.9000000000000000e+01" rms="0.0000000000000000e+00" purity="5.3981685638427734e-01" nType="1"/>
            <Node pos="r" depth="3" NCoef="0" IVar="-1" Cut="0.0000000000000000e+00" cType="1" res="-9.9000000000000000e+01" rms="0.0000000000000000e+00" purity="1.4562889933586121e-01" nType="-1"/>
          </Node>
        </Node>
      </Node>
    </BinaryTree>
    <BinaryTree type="DecisionTree" boostWeight="5.5975614492645973e-02" itree="16">
      <Node pos="s" depth="0" NCoef="0" IVar="4" Cut="1.2730560302734375e+02" cType="1" res="-9.9000000000000000e+01" rms="0.0000000000000000e+00" purity="5.0292223691940308e-01" nType="0">
        <Node pos="l" depth="1" NCoef="0" IVar="2" Cut="1.1213235473632812e+02" cType="1" res="-9.9000000000000000e+01" rms="0.0000000000000000e+00" purity="5.0814461708068848e-01" nType="0">
          <Node pos="l" depth="2" NCoef="0" IVar="-1" Cut="6.7225212097167969e+01" cType="0" res="-9.9000000000000000e+01" rms="0.0000000000000000e+00" purity="5.1575410366058350e-01" nType="1"/>
          <Node pos="r" depth="2" NCoef="0" IVar="3" Cut="8.7808311462402344e+01" cType="0" res="-9.9000000000000000e+01" rms="0.0000000000000000e+00" purity="3.9632827043533325e-01" nType="0">
            <Node pos="l" depth="3" NCoef="0" IVar="-1" Cut="0.0000000000000000e+00" cType="1" res="-9.9000000000000000e+01" rms="0.0000000000000000e+00" purity="6.2617778778076172e-01" nType="1"/>
            <Node pos="r" depth="3" NCoef="0" IVar="-1" Cut="0.0000000000000000e+00" cType="1" res="-9.9000000000000000e+01" rms="0.0000000000000000e+00" purity="3.6404681205749512e-01" nType="-1"/>
          </Node>
        </Node>
        <Node pos="r" depth="1" NCoef="0" IVar="5" Cut="8.8187072753906250e+01" cType="1" res="-9.9000000000000000e+01" rms="0.0000000000000000e+00" purity="2.4675995111465454e-01" nType="0">
          <Node pos="l" depth="2" NCoef="0" IVar="1" Cut="4.5921813964843750e+01" cType="1" res="-9.9000000000000000e+01" rms="0.0000000000000000e+00" purity="3.3779039978981018e-01" nType="0">
            <Node pos="l" depth="3" NCoef="0" IVar="-1" Cut="0.0000000000000000e+00" cType="1" res="-9.9000000000000000e+01" rms="0.0000000000000000e+00" purity="5.0447869300842285e-01" nType="1"/>
            <Node pos="r" depth="3" NCoef="0" IVar="-1" Cut="0.0000000000000000e+00" cType="1" res="-9.9000000000000000e+01" rms="0.0000000000000000e+00" purity="2.5533613562583923e-01" nType="-1"/>
          </Node>
          <Node pos="r" depth="2" NCoef="0" IVar="-1" Cut="2.0582933425903320e+00" cType="1" res="-9.9000000000000000e+01" rms="0.0000000000000000e+00" purity="1.5937811136245728e-01" nType="-1"/>
        </Node>
      </Node>
    </BinaryTree>
    <BinaryTree type="DecisionTree" boostWeight="4.3455842956098410e-02" itree="17">
      <Node pos="s" depth="0" NCoef="0" IVar="4" Cut="1.2730560302734375e+02" cType="1" res="-9.9000000000000000e+01" rms="0.0000000000000000e+00" purity="4.9091824889183044e-01" nType="0">
        <Node pos="l" depth="1" NCoef="0" IVar="2" Cut="1.3641467285156250e+02" cType="1" res="-9.9000000000000000e+01" rms="0.0000000000000000e+00" purity="4.9571210145950317e-01" nType="0">
          <Node pos="l" depth="2" NCoef="0" IVar="3" Cut="6.9342544555664062e+01" cType="0" res="-9.9000000000000000e+01" rms="0.0000000000000000e+00" purity="4.9998447299003601e-01" nType="0">
            <Node pos="l" depth="3" NCoef="0" IVar="-1" Cut="0.0000000000000000e+00" cType="1" res="-9.9000000000000000e+01" rms="0.0000000000000000e+00" purity="6.0756045579910278e-01" nType="1"/>
            <Node pos="r" depth="3" NCoef="0" IVar="-1" Cut="0.0000000000000000e+00" cType="1" res="-9.9000000000000000e+01" rms="0.0000000000000000e+00" purity="4.9304792284965515e-01" nType="-1"/>
          </Node>
          <Node pos="r" depth="2" NCoef="0" IVar="-1" Cut="1.6481351852416992e+00" cType="0" res="-9.9000000000000000e+01" rms="0.0000000000000000e+00" purity="3.4583753347396851e-01" nType="-1"/>
        </Node>
        <Node pos="r" depth="1" NCoef="0" IVar="6" Cut="2.0230596065521240e+00" cType="1" res="-9.9000000000000000e+01" rms="0.0000000000000000e+00" purity="2.5268992781639099e-01" nType="0">
          <Node pos="l" depth="2" NCoef="0" IVar="1" Cut="5.6393070220947266e+01" cType="1" res="-9.9000000000000000e+01" rms="0.0000000000000000e+00" purity="5.4622721672058105e-01" nType="0">
            <Node pos="l" depth="3" NCoef="0" IVar="-1" Cut="0.0000000000000000e+00" cType="1" res="-9.9000000000000000e+01" rms="0.0000000000000000e+00" purity="6.5033900737762451e-01" nType="1"/>
            <Node pos="r" depth="3" NCoef="0" IVar="-1" Cut="0.0000000000000000e+00" cType="1" res="-9.9000000000000000e+01" rms="0.0000000000000000e+00" purity="4.6408894658088684e-01" nType="-1"/>
          </Node>
          <Node pos="r" depth="2" NCoef="0" IVar="-1" Cut="5.8880790710449219e+01" cType="1" res="-9.9000000000000000e+01" rms="0.0000000000000000e+00" purity="2.2671014070510864e-01" nType="-1"/>
        </Node>
      </Node>
    </BinaryTree>
    <BinaryTree type="DecisionTree" boostWeight="6.2044208202833975e-02" itree="18">
      <Node pos="s" depth="0" NCoef="0" IVar="4" Cut="1.2730560302734375e+02" cType="1" res="-9.9000000000000000e+01" rms="0.0000000000000000e+00" purity="5.0051134824752808e-01" nType="0">
        <Node pos="l" depth="1" NCoef="0" IVar="2" Cut="1.3641467285156250e+02" cType="1" res="-9.9000000000000000e+01" rms="0.0000000000000000e+00" purity="5.0529873371124268e-01" nType="0">
          <Node pos="l" depth="2" NCoef="0" IVar="0" Cut="4.0126735687255859e+01" cType="1" res="-9.9000000000000000e+01" rms="0.0000000000000000e+00" purity="5.0953620672225952e-01" nType="0">
            <Node pos="l" depth="3" NCoef="0" IVar="-1" Cut="0.0000000000000000e+00" cType="1" res="-9.9000000000000000e+01" rms="0.0000000000000000e+00" purity="5.3830105066299438e-01" nType="1"/>
            <Node pos="r" depth="3" NCoef="0" IVar="-1" Cut="0.0000000000000000e+00" cType="1" res="-9.9000000000000000e+01" rms="0.0000000000000000e+00" purity="4.8773768544197083e-01" nType="-1"/>
          </Node>
          <Node pos="r" depth="2" NCoef="0" IVar="-1" Cut="1.6481351852416992e+00" cType="0" res="-9.9000000000000000e+01" rms="0.0000000000000000e+00" purity="3.5573345422744751e-01" nType="-1"/>
        </Node>
        <Node pos="r" depth="1" NCoef="0" IVar="5" Cut="8.8187072753906250e+01" cType="1" res="-9.9000000000000000e+01" rms="0.0000000000000000e+00" purity="2.6008278131484985e-01" nType="0">
          <Node pos="l" depth="2" NCoef="0" IVar="-1" Cut="6.1636798858642578e+01" cType="1" res="-9.9000000000000000e+01" rms="0.0000000000000000e+00" purity="3.4995388984680176e-01" nType="-1"/>
          <Node pos="r" depth="2" NCoef="0" IVar="6" Cut="2.0582933425903320e+00" cType="1" res="-9.9000000000000000e+01" rms="0.0000000000000000e+00" purity="1.7225073277950287e-01" nType="0">
            <Node pos="l" depth="3" NCoef="0" IVar="-1" Cut="0.0000000000000000e+00" cType="1" res="-9.9000000000000000e+01" rms="0.0000000000000000e+00" purity="5.0357133150100708e-01" nType="1"/>
            <Node pos="r" depth="3" NCoef="0" IVar="-1" Cut="0.0000000000000000e+00" cType="1" res="-9.9000000000000000e+01" rms="0.0000000000000000e+00" purity="1.3897866010665894e-01" nType="-1"/>
          </Node>
        </Node>
      </Node>
    </BinaryTree>
    <BinaryTree type="DecisionTree" boostWeight="8.3884257982242333e-02" itree="19">
      <Node pos="s" depth="0" NCoef="0" IVar="4" Cut="1.2730560302734375e+02" cType="1" res="-9.9000000000000000e+01" rms="0.0000000000000000e+00" purity="5.0324821472167969e-01" nType="0">
        <Node pos="l" depth="1" NCoef="0" IVar="1" Cut="3.1263393402099609e+01" cType="0" res="-9.9000000000000000e+01" rms="0.0000000000000000e+00" purity="5.0781643390655518e-01" nType="0">
          <Node pos="l" depth="2" NCoef="0" IVar="7" Cut="1.9449923038482666e+00" cType="0" res="-9.9000000000000000e+01" rms="0.0000000000000000e+00" purity="5.4023188352584839e-01" nType="0">
            <Node pos="l" depth="3" NCoef="0" IVar="-1" Cut="0.0000000000000000e+00" cType="1" res="-9.9000000000000000e+01" rms="0.0000000000000000e+00" purity="5.9429597854614258e-01" nType="1"/>
            <Node pos="r" depth="3" NCoef="0" IVar="-1" Cut="0.0000000000000000e+00" cType="1" res="-9.9000000000000000e+01" rms="0.0000000000000000e+00" purity="4.7727358341217041e-01" nType="-1"/>
          </Node>
          <Node pos="r" depth="2" NCoef="0" IVar="0" Cut="5.1495548248291016e+01" cType="1" res="-9.9000000000000000e+01" rms="0.0000000000000000e+00" purity="4.8763391375541687e-01" nType="0">
            <Node pos="l" depth="3" NCoef="0" IVar="-1" Cut="0.0000000000000000e+00" cType="1" res="-9.9000000000000000e+01" rms="0.0000000000000000e+00" purity="5.0719892978668213e-01" nType="1"/>
            <Node pos="r" depth="3" NCoef="0" IVar="-1" Cut="0.0000000000000000e+00" cType="1" res="-9.9000000000000000e+01" rms="0.0000000000000000e+00" purity="4.1220983862876892e-01" nType="-1"/>
          </Node>
        </Node>
        <Node pos="r" depth="1" NCoef="0" IVar="-1" Cut="8.8187072753906250e+01" cType="1" res="-9.9000000000000000e+01" rms="0.0000000000000000e+00" purity="2.7074134349822998e-01" nType="-1"/>
      </Node>
    </BinaryTree>
    <BinaryTree type="DecisionTree" boostWeight="6.7292902571266258e-02" itree="20">
      <Node pos="s" depth="0" NCoef="0" IVar="4" Cut="1.2730560302734375e+02" cType="1" res="-9.9000000000000000e+01" rms="0.0000000000000000e+00" purity="4.9558773636817932e-01" nType="0">
        <Node pos="l" depth="1" NCoef="0" IVar="1" Cut="3.1263393402099609e+01" cType="0" res="-9.9000000000000000e+01" rms="0.0000000000000000e+00" purity="4.9960824847221375e-01" nType="0">
          <Node pos="l" depth="2" NCoef="0" IVar="-1" Cut="-1.9998258352279663e+00" cType="1" res="-9.9000000000000000e+01" rms="0.0000000000000000e+00" purity="5.3883826732635498e-01" nType="1"/>
          <Node pos="r" depth="2" NCoef="0" IVar="-1" Cut="1.0471951961517334e+00" cType="0" res="-9.9000000000000000e+01" rms="0.0000000000000000e+00" purity="4.7525957226753235e-01" nType="-1"/>
        </Node>
        <Node pos="r" depth="1" NCoef="0" IVar="-1" Cut="8.8187072753906250e+01" cType="1" res="-9.9000000000000000e+01" rms="0.0000000000000000e+00" purity="2.8761816024780273e-01" nType="-1"/>
      </Node>
    </BinaryTree>
    <BinaryTree type="DecisionTree" boostWeight="3.9143109409909727e-02" itree="21">
      <Node pos="s" depth="0" NCoef="0" IVar="1" Cut="5.1877483367919922e+01" cType="1" res="-9.9000000000000000e+01" rms="0.0000000000000000e+00" purity="4.9976772069931030e-01" nType="0">
        <Node pos="l" depth="1" NCoef="0" IVar="9" Cut="-3.1428556442260742e+00" cType="1" res="-9.9000000000000000e+01" rms="0.0000000000000000e+00" purity="5.0433158874511719e-01" nType="0">
          <Node pos="l" depth="2" NCoef="0" IVar="1" Cut="2.3038469314575195e+01" cType="0" res="-9.9000000000000000e+01" rms="0.0000000000000000e+00" purity="6.6186773777008057e-01" nType="0">
            <Node pos="l" depth="3" NCoef="0" IVar="-1" Cut="0.0000000000000000e+00" cType="1" res="-9.9000000000000000e+01" rms="0.0000000000000000e+00" purity="7.1422231197357178e-01" nType="1"/>
            <Node pos="r" depth="3" NCoef="0" IVar="-1" Cut="0.0000000000000000e+00" cType="1" res="-9.9000000000000000e+01" rms="0.0000000000000000e+00" purity="4.6377229690551758e-01" nType="-1"/>
          </Node>
          <Node pos="r" depth="2" NCoef="0" IVar="2" Cut="1.1213235473632812e+02" cType="1" res="-9.9000000000000000e+01" rms="0.0000000000000000e+00" purity="5.0049549341201782e-01" nType="0">
            <Node pos="l" depth="3" NCoef="0" IVar="-1" Cut="0.0000000000000000e+00" cType="1" res="-9.9000000000000000e+01" rms="0.0000000000000000e+00" purity="5.0642317533493042e-01" nType="1"/>
            <Node pos="r" depth="3" NCoef="0" IVar="-1" Cut="0.0000000000000000e+00" cType="1" res="-9.9000000000000000e+01" rms="0.0000000000000000e+00" purity="4.1327548027038574e-01" nType="-1"/>
          </Node>
        </Node>
        <Node pos="r" depth="1" NCoef="0" IVar="-1" Cut="2.6934220790863037e+00" cType="1" res="-9.9000000000000000e+01" rms="0.0000000000000000e+00" purity="3.1176438927650452e-01" nType="-1"/>
      </Node>
    </BinaryTree>
    <BinaryTree type="DecisionTree" boostWeight="6.1569862655313237e-02" itree="22">
      <Node pos="s" depth="0" NCoef="0" IVar="1" Cut="5.1877483367919922e+01" cType="1" res="-9.9000000000000000e+01" rms="0.0000000000000000e+00" purity="4.9172252416610718e-01" nType="0">
        <Node pos="l" depth="1" NCoef="0" IVar="9" Cut="-3.1428556442260742e+00" cType="1" res="-9.9000000000000000e+01" rms="0.0000000000000000e+00" purity="4.9585750699043274e-01" nType="0">
          <Node pos="l" depth="2" NCoef="0" IVar="1" Cut="2.3038469314575195e+01" cType="0" res="-9.9000000000000000e+01" rms="0.0000000000000000e+00" purity="6.5726351737976074e-01" nType="0">
            <Node pos="l" depth="3" NCoef="0" IVar="-1" Cut="0.0000000000000000e+00" cType="1" res="-9.9000000000000000e+01" rms="0.0000000000000000e+00" purity="7.0616632699966431e-01" nType="1"/>
            <Node pos="r" depth="3" NCoef="0" IVar="-1" Cut="0.0000000000000000e+00" cType="1" res="-9.9000000000000000e+01" rms="0.0000000000000000e+00" purity="4.7351932525634766e-01" nType="-1"/>
          </Node>
          <Node pos="r" depth="2" NCoef="0" IVar="1" Cut="3.3650955200195312e+01" cType="0" res="-9.9000000000000000e+01" rms="0.0000000000000000e+00" purity="4.9195262789726257e-01" nType="0">
            <Node pos="l" depth="3" NCoef="0" IVar="-1" Cut="0.0000000000000000e+00" cType="1" res="-9.9000000000000000e+01" rms="0.0000000000000000e+00" purity="5.2796274423599243e-01" nType="1"/>
            <Node pos="r" depth="3" NCoef="0" IVar="-1" Cut="0.0000000000000000e+00" cType="1" res="-9.9000000000000000e+01" rms="0.0000000000000000e+00" purity="4.7791227698326111e-01" nType="-1"/>
          </Node>
        </Node>
        <Node pos="r" depth="1" NCoef="0" IVar="-1" Cut="2.6934220790863037e+00" cType="1" res="-9.9000000000000000e+01" rms="0.0000000000000000e+00" purity="3.2022446393966675e-01" nType="-1"/>
      </Node>
    </BinaryTree>
    <BinaryTree type="DecisionTree" boostWeight="3.8598283626314657e-02" itree="23">
      <Node pos="s" depth="0" NCoef="0" IVar="1" Cut="4.3908119201660156e+01" cType="1" res="-9.9000000000000000e+01" rms="0.0000000000000000e+00" purity="4.9831542372703552e-01" nType="0">
        <Node pos="l" depth="1" NCoef="0" IVar="9" Cut="-2.0384180545806885e+00" cType="1" res="-9.9000000000000000e+01" rms="0.0000000000000000e+00" purity="5.0548762083053589e-01" nType="0">
          <Node pos="l" depth="2" NCoef="0" IVar="1" Cut="2.3443029403686523e+01" cType="0" res="-9.9000000000000000e+01" rms="0.0000000000000000e+00" purity="5.9050732851028442e-01" nType="0">
            <Node pos="l" depth="3" NCoef="0" IVar="-1" Cut="0.0000000000000000e+00" cType="1" res="-9.9000000000000000e+01" rms="0.0000000000000000e+00" purity="6.2984496355056763e-01" nType="1"/>
            <Node pos="r" depth="3" NCoef="0" IVar="-1" Cut="0.0000000000000000e+00" cType="1" res="-9.9000000000000000e+01" rms="0.0000000000000000e+00" purity="4.6430507302284241e-01" nType="-1"/>
          </Node>
          <Node pos="r" depth="2" NCoef="0" IVar="2" Cut="1.3641467285156250e+02" cType="1" res="-9.9000000000000000e+01" rms="0.0000000000000000e+00" purity="4.9967122077941895e-01" nType="0">
            <Node pos="l" depth="3" NCoef="0" IVar="-1" Cut="0.0000000000000000e+00" cType="1" res="-9.9000000000000000e+01" rms="0.0000000000000000e+00" purity="5.0297027826309204e-01" nType="1"/>
            <Node pos="r" depth="3" NCoef="0" IVar="-1" Cut="0.0000000000000000e+00" cType="1" res="-9.9000000000000000e+01" rms="0.0000000000000000e+00" purity="3.8467741012573242e-01" nType="-1"/>
          </Node>
        </Node>
        <Node pos="r" depth="1" NCoef="0" IVar="4" Cut="1.4876144409179688e+02" cType="1" res="-9.9000000000000000e+01" rms="0.0000000000000000e+00" purity="3.8987126946449280e-01" nType="0">
          <Node pos="l" depth="2" NCoef="0" IVar="9" Cut="-2.6499576568603516e+00" cType="1" res="-9.9000000000000000e+01" rms="0.0000000000000000e+00" purity="4.1662207245826721e-01" nType="0">
            <Node pos="l" depth="3" NCoef="0" IVar="-1" Cut="0.0000000000000000e+00" cType="1" res="-9.9000000000000000e+01" rms="0.0000000000000000e+00" purity="7.6281189918518066e-01" nType="1"/>
            <Node pos="r" depth="3" NCoef="0" IVar="-1" Cut="0.0000000000000000e+00" cType="1" res="-9.9000000000000000e+01" rms="0.0000000000000000e+00" purity="4.0992507338523865e-01" nType="-1"/>
          </Node>
          <Node pos="r" depth="2" NCoef="0" IVar="6" Cut="2.2388284206390381e+00" cType="1" res="-9.9000000000000000e+01" rms="0.0000000000000000e+00" purity="2.0620174705982208e-01" nType="0">
            <Node pos="l" depth="3" NCoef="0" IVar="-1" Cut="0.0000000000000000e+00" cType="1" res="-9.9000000000000000e+01" rms="0.0000000000000000e+00" purity="5.5127823352813721e-01" nType="1"/>
            <Node pos="r" depth="3" NCoef="0" IVar="-1" Cut="0.0000000000000000e+00" cType="1" res="-9.9000000000000000e+01" rms="0.0000000000000000e+00" purity="1.5497878193855286e-01" nType="-1"/>
          </Node>
        </Node>
      </Node>
    </BinaryTree>
    <BinaryTree type="DecisionTree" boostWeight="4.0871808665959165e-02" itree="24">
      <Node pos="s" depth="0" NCoef="0" IVar="9" Cut="-2.0384180545806885e+00" cType="1" res="-9.9000000000000000e+01" rms="0.0000000000000000e+00" purity="4.9056547880172729e-01" nType="0">
        <Node pos="l" depth="1" NCoef="0" IVar="-1" Cut="7.9709732055664062e+01" cType="0" res="-9.9000000000000000e+01" rms="0.0000000000000000e+00" purity="5.8834624290466309e-01" nType="1"/>
        <Node pos="r" depth="1" NCoef="0" IVar="-1" Cut="1.2730560302734375e+02" cType="1" res="-9.9000000000000000e+01" rms="0.0000000000000000e+00" purity="4.8408031463623047e-01" nType="-1"/>
      </Node>
    </BinaryTree>
    <BinaryTree type="DecisionTree" boostWeight="2.0271555421943928e-02" itree="25">
      <Node pos="s" depth="0" NCoef="0" IVar="4" Cut="1.2730560302734375e+02" cType="1" res="-9.9000000000000000e+01" rms="0.0000000000000000e+00" purity="4.9951070547103882e-01" nType="0">
        <Node pos="l" depth="1" NCoef="0" IVar="9" Cut="-3.1428556442260742e+00" cType="1" res="-9.9000000000000000e+01" rms="0.0000000000000000e+00" purity="5.0293409824371338e-01" nType="0">
          <Node pos="l" depth="2" NCoef="0" IVar="-1" Cut="3.4899118542671204e-01" cType="1" res="-9.9000000000000000e+01" rms="0.0000000000000000e+00" purity="6.3242834806442261e-01" nType="1"/>
          <Node pos="r" depth="2" NCoef="0" IVar="2" Cut="1.6069699096679688e+02" cType="1" res="-9.9000000000000000e+01" rms="0.0000000000000000e+00" purity="4.9987724423408508e-01" nType="0">
            <Node pos="l" depth="3" NCoef="0" IVar="-1" Cut="0.0000000000000000e+00" cType="1" res="-9.9000000000000000e+01" rms="0.0000000000000000e+00" purity="5.0192612409591675e-01" nType="1"/>
            <Node pos="r" depth="3" NCoef="0" IVar="-1" Cut="0.0000000000000000e+00" cType="1" res="-9.9000000000000000e+01" rms="0.0000000000000000e+00" purity="3.3565089106559753e-01" nType="-1"/>
          </Node>
        </Node>
        <Node pos="r" depth="1" NCoef="0" IVar="-1" Cut="8.8187072753906250e+01" cType="1" res="-9.9000000000000000e+01" rms="0.0000000000000000e+00" purity="3.1602397561073303e-01" nType="-1"/>
      </Node>
    </BinaryTree>
    <BinaryTree type="DecisionTree" boostWeight="3.1487913333245500e-02" itree="26">
      <Node pos="s" depth="0" NCoef="0" IVar="4" Cut="1.2730560302734375e+02" cType="1" res="-9.9000000000000000e+01" rms="0.0000000000000000e+00" purity="4.9474731087684631e-01" nType="0">
        <Node pos="l" depth="1" NCoef="0" IVar="9" Cut="-3.1428556442260742e+00" cType="1" res="-9.9000000000000000e+01" rms="0.0000000000000000e+00" purity="4.9798813462257385e-01" nType="0">
          <Node pos="l" depth="2" NCoef="0" IVar="-1" Cut="3.4899118542671204e-01" cType="1" res="-9.9000000000000000e+01" rms="0.0000000000000000e+00" purity="6.2770336866378784e-01" nType="1"/>
          <Node pos="r" depth="2" NCoef="0" IVar="4" Cut="2.4227188110351562e+01" cType="0" res="-9.9000000000000000e+01" rms="0.0000000000000000e+00" purity="4.9493408203125000e-01" nType="0">
            <Node pos="l" depth="3" NCoef="0" IVar="-1" Cut="0.0000000000000000e+00" cType="1" res="-9.9000000000000000e+01" rms="0.0000000000000000e+00" purity="5.0293868780136108e-01" nType="1"/>
            <Node pos="r" depth="3" NCoef="0" IVar="-1" Cut="0.0000000000000000e+00" cType="1" res="-9.9000000000000000e+01" rms="0.0000000000000000e+00" purity="4.5384317636489868e-01" nType="-1"/>
          </Node>
        </Node>
        <Node pos="r" depth="1" NCoef="0" IVar="-1" Cut="8.8187072753906250e+01" cType="1" res="-9.9000000000000000e+01" rms="0.0000000000000000e+00" purity="3.2042199373245239e-01" nType="-1"/>
      </Node>
    </BinaryTree>
    <BinaryTree type="DecisionTree" boostWeight="4.5963157215302274e-02" itree="27">
      <Node pos="s" depth="0" NCoef="0" IVar="1" Cut="4.3908119201660156e+01" cType="1" res="-9.9000000000000000e+01" rms="0.0000000000000000e+00" purity="4.8962002992630005e-01" nType="0">
        <Node pos="l" depth="1" NCoef="0" IVar="3" Cut="7.0246650695800781e+01" cType="0" res="-9.9000000000000000e+01" rms="0.0000000000000000e+00" purity="4.9541404843330383e-01" nType="0">
          <Node pos="l" depth="2" NCoef="0" IVar="0" Cut="5.1659824371337891e+01" cType="1" res="-9.9000000000000000e+01" rms="0.0000000000000000e+00" purity="5.8050006628036499e-01" nType="0">
            <Node pos="l" depth="3" NCoef="0" IVar="-1" Cut="0.0000000000000000e+00" cType="1" res="-9.9000000000000000e+01" rms="0.0000000000000000e+00" purity="6.4016199111938477e-01" nType="1"/>
            <Node pos="r" depth="3" NCoef="0" IVar="-1" Cut="0.0000000000000000e+00" cType="1" res="-9.9000000000000000e+01" rms="0.0000000000000000e+00" purity="4.7526580095291138e-01" nType="-1"/>
          </Node>
          <Node pos="r" depth="2" NCoef="0" IVar="4" Cut="2.9838056564331055e+01" cType="0" res="-9.9000000000000000e+01" rms="0.0000000000000000e+00" purity="4.9024528264999390e-01" nType="0">
            <Node pos="l" depth="3" NCoef="0" IVar="-1" Cut="0.0000000000000000e+00" cType="1" res="-9.9000000000000000e+01" rms="0.0000000000000000e+00" purity="5.0205910205841064e-01" nType="1"/>
            <Node pos="r" depth="3" NCoef="0" IVar="-1" Cut="0.0000000000000000e+00" cType="1" res="-9.9000000000000000e+01" rms="0.0000000000000000e+00" purity="4.3803283572196960e-01" nType="-1"/>
          </Node>
        </Node>
        <Node pos="r" depth="1" NCoef="0" IVar="-1" Cut="1.9116261291503906e+02" cType="1" res="-9.9000000000000000e+01" rms="0.0000000000000000e+00" purity="4.0130260586738586e-01" nType="-1"/>
      </Node>
    </BinaryTree>
    <BinaryTree type="DecisionTree" boostWeight="5.4261811983793796e-02" itree="28">
      <Node pos="s" depth="0" NCoef="0" IVar="3" Cut="1.7561662673950195e+01" cType="0" res="-9.9000000000000000e+01" rms="0.0000000000000000e+00" purity="4.8372635245323181e-01" nType="0">
        <Node pos="l" depth="1" NCoef="0" IVar="1" Cut="7.4558891296386719e+01" cType="1" res="-9.9000000000000000e+01" rms="0.0000000000000000e+00" purity="5.0012254714965820e-01" nType="0">
          <Node pos="l" depth="2" NCoef="0" IVar="3" Cut="6.5231323242187500e+01" cType="0" res="-9.9000000000000000e+01" rms="0.0000000000000000e+00" purity="5.0150388479232788e-01" nType="0">
            <Node pos="l" depth="3" NCoef="0" IVar="-1" Cut="0.0000000000000000e+00" cType="1" res="-9.9000000000000000e+01" rms="0.0000000000000000e+00" purity="5.6037497520446777e-01" nType="1"/>
            <Node pos="r" depth="3" NCoef="0" IVar="-1" Cut="0.0000000000000000e+00" cType="1" res="-9.9000000000000000e+01" rms="0.0000000000000000e+00" purity="4.9199402332305908e-01" nType="-1"/>
          </Node>
          <Node pos="r" depth="2" NCoef="0" IVar="-1" Cut="8.4788101196289062e+01" cType="0" res="-9.9000000000000000e+01" rms="0.0000000000000000e+00" purity="6.2767982482910156e-02" nType="-1"/>
        </Node>
        <Node pos="r" depth="1" NCoef="0" IVar="-1" Cut="1.0041817474365234e+02" cType="1" res="-9.9000000000000000e+01" rms="0.0000000000000000e+00" purity="4.5367538928985596e-01" nType="-1"/>
      </Node>
    </BinaryTree>
    <BinaryTree type="DecisionTree" boostWeight="5.4736522830495737e-02" itree="29">
      <Node pos="s" depth="0" NCoef="0" IVar="4" Cut="1.2730560302734375e+02" cType="1" res="-9.9000000000000000e+01" rms="0.0000000000000000e+00" purity="4.9484798312187195e-01" nType="0">
        <Node pos="l" depth="1" NCoef="0" IVar="3" Cut="1.7561662673950195e+01" cType="0" res="-9.9000000000000000e+01" rms="0.0000000000000000e+00" purity="4.9762704968452454e-01" nType="0">
          <Node pos="l" depth="2" NCoef="0" IVar="2" Cut="5.3054859161376953e+01" cType="1" res="-9.9000000000000000e+01" rms="0.0000000000000000e+00" purity="5.1210880279541016e-01" nType="0">
            <Node pos="l" depth="3" NCoef="0" IVar="-1" Cut="0.0000000000000000e+00" cType="1" res="-9.9000000000000000e+01" rms="0.0000000000000000e+00" purity="5.3956490755081177e-01" nType="1"/>
            <Node pos="r" depth="3" NCoef="0" IVar="-1" Cut="0.0000000000000000e+00" cType="1" res="-9.9000000000000000e+01" rms="0.0000000000000000e+00" purity="4.9113386869430542e-01" nType="-1"/>
          </Node>
          <Node pos="r" depth="2" NCoef="0" IVar="-1" Cut="3.6053068637847900e+00" cType="1" res="-9.9000000000000000e+01" rms="0.0000000000000000e+00" purity="4.7053274512290955e-01" nType="-1"/>
        </Node>
        <Node pos="r" depth="1" NCoef="0" IVar="5" Cut="8.8187072753906250e+01" cType="1" res="-9.9000000000000000e+01" rms="0.0000000000000000e+00" purity="3.4252408146858215e-01" nType="0">
          <Node pos="l" depth="2" NCoef="0" IVar="4" Cut="1.5764192199707031e+02" cType="1" res="-9.9000000000000000e+01" rms="0.0000000000000000e+00" purity="4.4608470797538757e-01" nType="0">
            <Node pos="l" depth="3" NCoef="0" IVar="-1" Cut="0.0000000000000000e+00" cType="1" res="-9.9000000000000000e+01" rms="0.0000000000000000e+00" purity="5.1961559057235718e-01" nType="1"/>
            <Node pos="r" depth="3" NCoef="0" IVar="-1" Cut="0.0000000000000000e+00" cType="1" res="-9.9000000000000000e+01" rms="0.0000000000000000e+00" purity="2.6753669977188110e-01" nType="-1"/>
          </Node>
          <Node pos="r" depth="2" NCoef="0" IVar="-1" Cut="4.2136299133300781e+01" cType="0" res="-9.9000000000000000e+01" rms="0.0000000000000000e+00" purity="2.3303592205047607e-01" nType="-1"/>
        </Node>
      </Node>
    </BinaryTree>
    <BinaryTree type="DecisionTree" boostWeight="1.9643880422458349e-02" itree="30">
      <Node pos="s" depth="0" NCoef="0" IVar="4" Cut="1.2730560302734375e+02" cType="1" res="-9.9000000000000000e+01" rms="0.0000000000000000e+00" purity="5.0076735019683838e-01" nType="0">
        <Node pos="l" depth="1" NCoef="0" IVar="9" Cut="-3.1428556442260742e+00" cType="1" res="-9.9000000000000000e+01" rms="0.0000000000000000e+00" purity="5.0359022617340088e-01" nType="0">
          <Node pos="l" depth="2" NCoef="0" IVar="-1" Cut="3.4899118542671204e-01" cType="1" res="-9.9000000000000000e+01" rms="0.0000000000000000e+00" purity="6.2865340709686279e-01" nType="1"/>
          <Node pos="r" depth="2" NCoef="0" IVar="2" Cut="1.6069699096679688e+02" cType="1" res="-9.9000000000000000e+01" rms="0.0000000000000000e+00" purity="5.0063818693161011e-01" nType="0">
            <Node pos="l" depth="3" NCoef="0" IVar="-1" Cut="0.0000000000000000e+00" cType="1" res="-9.9000000000000000e+01" rms="0.0000000000000000e+00" purity="5.0251096487045288e-01" nType="1"/>
            <Node pos="r" depth="3" NCoef="0" IVar="-1" Cut="0.0000000000000000e+00" cType="1" res="-9.9000000000000000e+01" rms="0.0000000000000000e+00" purity="3.4912836551666260e-01" nType="-1"/>
          </Node>
        </Node>
        <Node pos="r" depth="1" NCoef="0" IVar="-1" Cut="8.8187072753906250e+01" cType="1" res="-9.9000000000000000e+01" rms="0.0000000000000000e+00" purity="3.4478628635406494e-01" nType="-1"/>
      </Node>
    </BinaryTree>
    <BinaryTree type="DecisionTree" boostWeight="3.0644792271245308e-02" itree="31">
      <Node pos="s" depth="0" NCoef="0" IVar="9" Cut="-3.1428556442260742e+00" cType="1" res="-9.9000000000000000e+01" rms="0.0000000000000000e+00" purity="4.9614548683166504e-01" nType="0">
        <Node pos="l" depth="1" NCoef="0" IVar="9" Cut="-4.1947131156921387e+00" cType="1" res="-9.9000000000000000e+01" rms="0.0000000000000000e+00" purity="6.2833583354949951e-01" nType="0">
          <Node pos="l" depth="2" NCoef="0" IVar="-1" Cut="4.5789978027343750e+01" cType="1" res="-9.9000000000000000e+01" rms="0.0000000000000000e+00" purity="7.9143142700195312e-01" nType="1"/>
          <Node pos="r" depth="2" NCoef="0" IVar="1" Cut="2.5406703948974609e+01" cType="0" res="-9.9000000000000000e+01" rms="0.0000000000000000e+00" purity="5.8468973636627197e-01" nType="0">
            <Node pos="l" depth="3" NCoef="0" IVar="-1" Cut="0.0000000000000000e+00" cType="1" res="-9.9000000000000000e+01" rms="0.0000000000000000e+00" purity="6.6229635477066040e-01" nType="1"/>
            <Node pos="r" depth="3" NCoef="0" IVar="-1" Cut="0.0000000000000000e+00" cType="1" res="-9.9000000000000000e+01" rms="0.0000000000000000e+00" purity="4.5973762869834900e-01" nType="-1"/>
          </Node>
        </Node>
        <Node pos="r" depth="1" NCoef="0" IVar="4" Cut="1.2730560302734375e+02" cType="1" res="-9.9000000000000000e+01" rms="0.0000000000000000e+00" purity="4.9302992224693298e-01" nType="0">
          <Node pos="l" depth="2" NCoef="0" IVar="3" Cut="7.9027481079101562e+01" cType="0" res="-9.9000000000000000e+01" rms="0.0000000000000000e+00" purity="4.9584695696830750e-01" nType="0">
            <Node pos="l" depth="3" NCoef="0" IVar="-1" Cut="0.0000000000000000e+00" cType="1" res="-9.9000000000000000e+01" rms="0.0000000000000000e+00" purity="5.9257870912551880e-01" nType="1"/>
            <Node pos="r" depth="3" NCoef="0" IVar="-1" Cut="0.0000000000000000e+00" cType="1" res="-9.9000000000000000e+01" rms="0.0000000000000000e+00" purity="4.9305054545402527e-01" nType="-1"/>
          </Node>
          <Node pos="r" depth="2" NCoef="0" IVar="-1" Cut="8.8187072753906250e+01" cType="1" res="-9.9000000000000000e+01" rms="0.0000000000000000e+00" purity="3.3673095703125000e-01" nType="-1"/>
        </Node>
      </Node>
    </BinaryTree>
    <BinaryTree type="DecisionTree" boostWeight="3.1614173708063284e-02" itree="32">
      <Node pos="s" depth="0" NCoef="0" IVar="4" Cut="1.2730560302734375e+02" cType="1" res="-9.9000000000000000e+01" rms="0.0000000000000000e+00" purity="5.0314831733703613e-01" nType="0">
        <Node pos="l" depth="1" NCoef="0" IVar="9" Cut="-2.0384180545806885e+00" cType="1" res="-9.9000000000000000e+01" rms="0.0000000000000000e+00" purity="5.0579404830932617e-01" nType="0">
          <Node pos="l" depth="2" NCoef="0" IVar="-1" Cut="7.9709732055664062e+01" cType="0" res="-9.9000000000000000e+01" rms="0.0000000000000000e+00" purity="5.7505118846893311e-01" nType="1"/>
          <Node pos="r" depth="2" NCoef="0" IVar="2" Cut="1.1213235473632812e+02" cType="1" res="-9.9000000000000000e+01" rms="0.0000000000000000e+00" purity="5.0118142366409302e-01" nType="0">
            <Node pos="l" depth="3" NCoef="0" IVar="-1" Cut="0.0000000000000000e+00" cType="1" res="-9.9000000000000000e+01" rms="0.0000000000000000e+00" purity="5.0563901662826538e-01" nType="1"/>
            <Node pos="r" depth="3" NCoef="0" IVar="-1" Cut="0.0000000000000000e+00" cType="1" res="-9.9000000000000000e+01" rms="0.0000000000000000e+00" purity="4.3379858136177063e-01" nType="-1"/>
          </Node>
        </Node>
        <Node pos="r" depth="1" NCoef="0" IVar="-1" Cut="8.8187072753906250e+01" cType="1" res="-9.9000000000000000e+01" rms="0.0000000000000000e+00" purity="3.5583701729774475e-01" nType="-1"/>
      </Node>
    </BinaryTree>
    <BinaryTree type="DecisionTree" boostWeight="2.3559417833487601e-02" itree="33">
      <Node pos="s" depth="0" NCoef="0" IVar="9" Cut="-3.1428556442260742e+00" cType="1" res="-9.9000000000000000e+01" rms="0.0000000000000000e+00" purity="4.9642574787139893e-01" nType="0">
        <Node pos="l" depth="1" NCoef="0" IVar="9" Cut="-4.1947131156921387e+00" cType="1" res="-9.9000000000000000e+01" rms="0.0000000000000000e+00" purity="6.1870902776718140e-01" nType="0">
          <Node pos="l" depth="2" NCoef="0" IVar="-1" Cut="4.5789978027343750e+01" cType="1" res="-9.9000000000000000e+01" rms="0.0000000000000000e+00" purity="7.8119891881942749e-01" nType="1"/>
          <Node pos="r" depth="2" NCoef="0" IVar="1" Cut="2.5406703948974609e+01" cType="0" res="-9.9000000000000000e+01" rms="0.0000000000000000e+00" purity="5.7570379972457886e-01" nType="0">
            <Node pos="l" depth="3" NCoef="0" IVar="-1" Cut="0.0000000000000000e+00" cType="1" res="-9.9000000000000000e+01" rms="0.0000000000000000e+00" purity="6.4850741624832153e-01" nType="1"/>
            <Node pos="r" depth="3" NCoef="0" IVar="-1" Cut="0.0000000000000000e+00" cType="1" res="-9.9000000000000000e+01" rms="0.0000000000000000e+00" purity="4.5961114764213562e-01" nType="-1"/>
          </Node>
        </Node>
        <Node pos="r" depth="1" NCoef="0" IVar="4" Cut="1.2730560302734375e+02" cType="1" res="-9.9000000000000000e+01" rms="0.0000000000000000e+00" purity="4.9356511235237122e-01" nType="0">
          <Node pos="l" depth="2" NCoef="0" IVar="8" Cut="2.5431764125823975e+00" cType="1" res="-9.9000000000000000e+01" rms="0.0000000000000000e+00" purity="4.9611473083496094e-01" nType="0">
            <Node pos="l" depth="3" NCoef="0" IVar="-1" Cut="0.0000000000000000e+00" cType="1" res="-9.9000000000000000e+01" rms="0.0000000000000000e+00" purity="5.0127404928207397e-01" nType="1"/>
            <Node pos="r" depth="3" NCoef="0" IVar="-1" Cut="0.0000000000000000e+00" cType="1" res="-9.9000000000000000e+01" rms="0.0000000000000000e+00" purity="4.4703000783920288e-01" nType="-1"/>
          </Node>
